{"learner":{"attributes":{"scikit_learn":"{\"_estimator_type\": \"classifier\"}"},"feature_names":["A1","A2","A3","A4","A5","A6","A7","A8","A9","A10","age","gender","family_history"],"feature_types":["int","int","int","int","int","int","int","int","int","int","int","int","int"],"gradient_booster":{"model":{"cats":{"enc":[],"feature_segments":[],"sorted_idx":[]},"gbtree_model_param":{"num_parallel_tree":"1","num_trees":"100"},"iteration_indptr":[0,1,2,3,4,5,6,7,8,9,10,11,12,13,14,15,16,17,18,19,20,21,22,23,24,25,26,27,28,29,30,31,32,33,34,35,36,37,38,39,40,41,42,43,44,45,46,47,48,49,50,51,52,53,54,55,56,57,58,59,60,61,62,63,64,65,66,67,68,69,70,71,72,73,74,75,76,77,78,79,80,81,82,83,84,85,86,87,88,89,90,91,92,93,94,95,96,97,98,99,100],"tree_info":[0,0,0,0,0,0,0,0,0,0,0,0,0,0,0,0,0,0,0,0,0,0,0,0,0,0,0,0,0,0,0,0,0,0,0,0,0,0,0,0,0,0,0,0,0,0,0,0,0,0,0,0,0,0,0,0,0,0,0,0,0,0,0,0,0,0,0,0,0,0,0,0,0,0,0,0,0,0,0,0,0,0,0,0,0,0,0,0,0,0,0,0,0,0,0,0,0,0,0,0],"trees":[{"base_weights":[-1.14331415E-8,-1.577438E0,1.2976741E0,-1.9334426E0,-3.281566E-1,-1.1887918E-1,1.8295112E0,-9.99259E-2,-1.6763321E0,-1.5663115E0,1.0437201E0,-1.3375623E0,1.1338873E0,1.4091744E0,9.6969515E-2,-9.668074E-2,-1.1477134E0,-9.64981E-2,-7.690848E-1,-1.887134E-1,1.6515868E0,-9.04091E-2,-2.3927775E-1,-2.8614843E-1,1.7576566E0,3.5316482E-1,1.7693771E0,-1.5067159E0,1.3171905E-1,-7.6600984E-2,7.0316833E-1,-1.3258497E0,9.073585E-1,1.2293242E0,9.4192736E-2,-1.4405662E0,9.111124E-1,-1.1818764E0,7.707689E-1,1.3321674E0,9.410782E-2,-8.1173086E-1,1.1458521E0,1.099117E0,9.550178E-2,-8.8305816E-2,-3.1320352E-2,-4.7144797E-2,5.244581E-2,-6.379619E-3,7.285892E-2,-8.574198E-2,-4.3334594E-4,-2.0390518E-2,6.072643E-2,1.201288E-2,7.332239E-2,-9.0833955E-2,1.623379E-2,-1.6303176E-2,7.239597E-2,-8.766613E-2,-1.5935186E-2,-5.2882764E-3,6.4959265E-2,1.3759995E-2,8.577602E-2,-7.554433E-2,9.48032E-3,1.3759995E-2,7.441783E-2,-5.2882764E-3,8.320719E-2],"categories":[],"categories_nodes":[],"categories_segments":[],"categories_sizes":[],"default_left":[0,0,0,0,0,0,0,0,0,0,0,0,0,0,0,0,0,0,0,0,0,0,0,0,0,0,0,0,0,0,0,0,0,0,0,0,0,0,0,0,0,0,0,0,0,0,0,0,0,0,0,0,0,0,0,0,0,0,0,0,0,0,0,0,0,0,0,0,0,0,0,0,0],"id":0,"left_children":[1,3,5,7,9,11,13,-1,15,17,19,21,23,25,-1,-1,27,-1,29,31,33,-1,35,37,39,41,43,45,47,-1,49,51,53,55,-1,57,59,61,63,65,-1,67,69,71,-1,-1,-1,-1,-1,-1,-1,-1,-1,-1,-1,-1,-1,-1,-1,-1,-1,-1,-1,-1,-1,-1,-1,-1,-1,-1,-1,-1,-1],"loss_changes":[2.0510078E3,2.0049536E2,4.1436816E2,2.53479E0,1.7403505E2,2.320425E2,1.572937E1,0E0,8.286667E0,1.4097824E1,3.6831486E1,3.9365005E1,6.693329E1,3.2276367E1,0E0,0E0,1.2944061E1,0E0,2.185625E1,2.239069E1,8.960495E-1,0E0,3.482346E1,2.3394413E1,2.6037598E-1,2.2398258E1,3.9577484E0,3.8601532E0,7.888205E0,0E0,4.5705795E0,4.468214E0,4.231976E0,3.0482426E0,0E0,8.722662E0,9.1054E0,5.9766064E0,5.463718E0,5.7068214E0,0E0,7.287113E0,3.8396206E0,9.366329E0,0E0,0E0,0E0,0E0,0E0,0E0,0E0,0E0,0E0,0E0,0E0,0E0,0E0,0E0,0E0,0E0,0E0,0E0,0E0,0E0,0E0,0E0,0E0,0E0,0E0,0E0,0E0,0E0,0E0],"parents":[2147483647,0,0,1,1,2,2,3,3,4,4,5,5,6,6,8,8,9,9,10,10,11,11,12,12,13,13,16,16,18,18,19,19,20,20,22,22,23,23,24,24,25,25,26,26,27,27,28,28,30,30,31,31,32,32,33,33,35,35,36,36,37,37,38,38,39,39,41,41,42,42,43,43],"right_children":[2,4,6,8,10,12,14,-1,16,18,20,22,24,26,-1,-1,28,-1,30,32,34,-1,36,38,40,42,44,46,48,-1,50,52,54,56,-1,58,60,62,64,66,-1,68,70,72,-1,-1,-1,-1,-1,-1,-1,-1,-1,-1,-1,-1,-1,-1,-1,-1,-1,-1,-1,-1,-1,-1,-1,-1,-1,-1,-1,-1,-1],"split_conditions":[1E0,1E0,1E0,1E0,1E0,1E0,1E0,-9.99259E-2,1E0,1E0,1E0,1E0,1E0,1E0,9.6969515E-2,-9.668074E-2,1E0,-9.64981E-2,1E0,1E0,1E0,-9.04091E-2,1E0,1E0,1E0,1E0,1E0,1E0,1E0,-7.6600984E-2,1E0,1E0,1.2E1,1E0,9.4192736E-2,1E0,1E0,1E0,1E0,1E0,9.410782E-2,1E0,1E0,1E0,9.550178E-2,-8.8305816E-2,-3.1320352E-2,-4.7144797E-2,5.244581E-2,-6.379619E-3,7.285892E-2,-8.574198E-2,-4.3334594E-4,-2.0390518E-2,6.072643E-2,1.201288E-2,7.332239E-2,-9.0833955E-2,1.623379E-2,-1.6303176E-2,7.239597E-2,-8.766613E-2,-1.5935186E-2,-5.2882764E-3,6.4959265E-2,1.3759995E-2,8.577602E-2,-7.554433E-2,9.48032E-3,1.3759995E-2,7.441783E-2,-5.2882764E-3,8.320719E-2],"split_indices":[4,2,2,9,9,0,6,0,3,8,6,6,9,0,0,0,12,0,0,0,12,0,9,1,6,1,9,8,1,0,1,7,10,0,0,12,8,3,7,8,0,8,9,7,0,0,0,0,0,0,0,0,0,0,0,0,0,0,0,0,0,0,0,0,0,0,0,0,0,0,0,0,0],"split_type":[0,0,0,0,0,0,0,0,0,0,0,0,0,0,0,0,0,0,0,0,0,0,0,0,0,0,0,0,0,0,0,0,0,0,0,0,0,0,0,0,0,0,0,0,0,0,0,0,0,0,0,0,0,0,0,0,0,0,0,0,0,0,0,0,0,0,0,0,0,0,0,0,0],"sum_hessian":[9.9995776E2,4.5123093E2,5.487268E2,3.5073517E2,1.0049575E2,1.4999367E2,3.9873315E2,2.744884E2,7.624678E1,5.2747772E1,4.7747982E1,7.599679E1,7.399687E1,8.549638E1,3.1323676E2,4.949791E1,2.6748869E1,3.524851E1,1.749926E1,1.5999324E1,3.174866E1,5.2747772E1,2.3249018E1,2.2749039E1,5.1247833E1,2.224906E1,6.3247326E1,2.0749123E1,5.9997463E0,1.1499514E1,5.9997463E0,7.7496724E0,8.249651E0,1.349943E1,1.824923E1,1.1249524E1,1.1999493E1,1.2249482E1,1.0499557E1,1.4249398E1,3.6998436E1,8.9996195E0,1.324944E1,1.2499472E1,5.0747856E1,1.5249355E1,5.499768E0,2.749884E0,3.2498627E0,3.2498627E0,2.749884E0,5.749757E0,1.9999155E0,1.4999366E0,6.749715E0,2.9998732E0,1.0499557E1,9.249609E0,1.9999155E0,3.7498415E0,8.249651E0,6.749715E0,5.499768E0,4.24982E0,6.249736E0,4.24982E0,9.9995775E0,4.9997888E0,3.999831E0,4.24982E0,8.9996195E0,4.24982E0,8.249651E0],"tree_param":{"num_deleted":"0","num_feature":"13","num_nodes":"73","size_leaf_vector":"1"}},{"base_weights":[7.581461E-5,-1.5018158E0,1.2365593E0,-1.8409253E0,-3.1197616E-1,-1.1283578E-1,1.7437512E0,-9.512509E-2,-1.5975494E0,-1.4921163E0,9.9610645E-1,-1.2738619E0,1.0813657E0,1.3439672E0,9.2415854E-2,-9.2098676E-2,-1.0954581E0,-9.1960385E-2,-7.318141E-1,-1.8214522E-1,1.5779809E0,-1.721947E0,-2.2834212E-1,-2.7389747E-1,1.6777021E0,3.3679876E-1,1.6880462E0,-1.5399266E0,-7.943016E-2,-1.4628674E0,6.7799586E-1,-1.2704924E0,8.672023E-1,1.1753554E0,8.997339E-2,-9.145194E-2,-1.2870876E0,-1.3762215E0,8.708759E-1,-1.131377E0,7.380237E-1,1.2711732E0,9.000646E-2,-7.781496E-1,1.0961174E0,1.0514246E0,9.1082595E-2,-8.699298E-2,-4.041403E-2,-3.877085E-2,5.968165E-2,-8.102153E-2,-3.877547E-2,-6.135547E-3,7.028196E-2,-8.218082E-2,-4.1890453E-4,-1.9778455E-2,5.8149863E-2,2.257461E-2,7.544522E-2,-8.2650036E-2,-2.927423E-3,-8.6852245E-2,1.56945E-2,-1.5659135E-2,6.9279596E-2,-8.3948515E-2,-1.5260473E-2,-5.0741136E-3,6.2240064E-2,9.805387E-3,7.568141E-2,-7.245386E-2,9.101739E-3,1.7318618E-2,7.474702E-2,-5.0741136E-3,7.9660915E-2],"categories":[],"categories_nodes":[],"categories_segments":[],"categories_sizes":[],"default_left":[0,0,0,0,0,0,0,0,0,0,0,0,0,0,0,0,0,0,0,0,0,0,0,0,0,0,0,0,0,0,0,0,0,0,0,0,0,0,0,0,0,0,0,0,0,0,0,0,0,0,0,0,0,0,0,0,0,0,0,0,0,0,0,0,0,0,0,0,0,0,0,0,0,0,0,0,0,0,0],"id":1,"left_children":[1,3,5,7,9,11,13,-1,15,17,19,21,23,25,-1,-1,27,-1,29,31,33,35,37,39,41,43,45,47,49,51,53,55,57,59,-1,-1,61,63,65,67,69,71,-1,73,75,77,-1,-1,-1,-1,-1,-1,-1,-1,-1,-1,-1,-1,-1,-1,-1,-1,-1,-1,-1,-1,-1,-1,-1,-1,-1,-1,-1,-1,-1,-1,-1,-1,-1],"loss_changes":[1.8567056E3,1.815802E2,3.75492E2,2.2225342E0,1.5791574E2,2.1038062E2,1.4179565E1,0E0,7.448715E0,1.2817749E1,3.3649006E1,3.5629112E1,6.095275E1,2.9341293E1,0E0,0E0,1.239748E1,0E0,2.0041538E1,2.0497438E1,7.99057E-1,1.4533997E-1,3.175927E1,2.1426445E1,3.0569458E-1,2.051667E1,3.5352173E0,1.4069939E0,9.335316E0,9.5861435E-2,4.2479205E0,4.1032076E0,3.9116874E0,2.814848E0,0E0,0E0,6.188015E0,8.006886E0,8.347679E0,5.4776573E0,5.014855E0,3.7344875E0,0E0,6.7024508E0,3.7378044E0,8.582348E0,0E0,0E0,0E0,0E0,0E0,0E0,0E0,0E0,0E0,0E0,0E0,0E0,0E0,0E0,0E0,0E0,0E0,0E0,0E0,0E0,0E0,0E0,0E0,0E0,0E0,0E0,0E0,0E0,0E0,0E0,0E0,0E0,0E0],"parents":[2147483647,0,0,1,1,2,2,3,3,4,4,5,5,6,6,8,8,9,9,10,10,11,11,12,12,13,13,16,16,18,18,19,19,20,20,21,21,22,22,23,23,24,24,25,25,26,26,27,27,28,28,29,29,30,30,31,31,32,32,33,33,36,36,37,37,38,38,39,39,40,40,41,41,43,43,44,44,45,45],"right_children":[2,4,6,8,10,12,14,-1,16,18,20,22,24,26,-1,-1,28,-1,30,32,34,36,38,40,42,44,46,48,50,52,54,56,58,60,-1,-1,62,64,66,68,70,72,-1,74,76,78,-1,-1,-1,-1,-1,-1,-1,-1,-1,-1,-1,-1,-1,-1,-1,-1,-1,-1,-1,-1,-1,-1,-1,-1,-1,-1,-1,-1,-1,-1,-1,-1,-1],"split_conditions":[1E0,1E0,1E0,1E0,1E0,1E0,1E0,-9.512509E-2,1E0,1E0,1E0,1E0,1E0,1E0,9.2415854E-2,-9.2098676E-2,1E0,-9.1960385E-2,1E0,1E0,1E0,1E0,1E0,1E0,1E0,1E0,1E0,1E0,1E0,1E0,1E0,1E0,1.2E1,1E0,8.997339E-2,-9.145194E-2,1E0,1E0,1E0,1E0,1E0,1E0,9.000646E-2,1E0,1E0,1E0,9.1082595E-2,-8.699298E-2,-4.041403E-2,-3.877085E-2,5.968165E-2,-8.102153E-2,-3.877547E-2,-6.135547E-3,7.028196E-2,-8.218082E-2,-4.1890453E-4,-1.9778455E-2,5.8149863E-2,2.257461E-2,7.544522E-2,-8.2650036E-2,-2.927423E-3,-8.6852245E-2,1.56945E-2,-1.5659135E-2,6.9279596E-2,-8.3948515E-2,-1.5260473E-2,-5.0741136E-3,6.2240064E-2,9.805387E-3,7.568141E-2,-7.245386E-2,9.101739E-3,1.7318618E-2,7.474702E-2,-5.0741136E-3,7.9660915E-2],"split_indices":[4,2,2,9,9,0,6,0,3,8,6,6,9,0,0,0,6,0,0,0,12,1,9,1,3,1,9,0,8,6,1,7,10,7,0,0,3,12,8,3,7,7,0,8,3,7,0,0,0,0,0,0,0,0,0,0,0,0,0,0,0,0,0,0,0,0,0,0,0,0,0,0,0,0,0,0,0,0,0],"split_type":[0,0,0,0,0,0,0,0,0,0,0,0,0,0,0,0,0,0,0,0,0,0,0,0,0,0,0,0,0,0,0,0,0,0,0,0,0,0,0,0,0,0,0,0,0,0,0,0,0,0,0,0,0,0,0,0,0,0,0,0,0,0,0,0,0,0,0,0,0,0,0,0,0,0,0,0,0,0,0],"sum_hessian":[9.978069E2,4.5045193E2,5.473549E2,3.5011923E2,1.0033272E2,1.4974161E2,3.976133E2,2.7398212E2,7.613711E1,5.2671913E1,4.7660805E1,7.58916E1,7.385001E1,8.530848E1,3.1230484E2,4.9413445E1,2.6723661E1,3.5188633E1,1.748328E1,1.5983136E1,3.167767E1,5.267106E1,2.3220545E1,2.273104E1,5.1118973E1,2.2226675E1,6.3081806E1,1.8232216E1,8.491445E0,1.1488378E1,5.9949026E0,7.742321E0,8.240815E0,1.3479995E1,1.8197676E1,3.9690514E1,1.2980545E1,1.1235578E1,1.1984967E1,1.2240588E1,1.049045E1,1.4466133E1,3.665284E1,8.994608E0,1.3232067E1,1.2480876E1,5.060093E1,1.3237005E1,4.9952116E0,5.742765E0,2.7486794E0,8.241662E0,3.2467153E0,3.2499642E0,2.7449381E0,5.7424E0,1.9999211E0,1.4999795E0,6.7408357E0,4.9945316E0,8.485463E0,9.735409E0,3.2451363E0,9.236005E0,1.9995728E0,3.7499897E0,8.234978E0,6.7406E0,5.499988E0,4.249937E0,6.2405133E0,2.9949803E0,1.1471153E1,4.9951134E0,3.9994946E0,5.2434406E0,7.988626E0,4.249937E0,8.230939E0],"tree_param":{"num_deleted":"0","num_feature":"13","num_nodes":"79","size_leaf_vector":"1"}},{"base_weights":[1.8991946E-5,-1.4358006E0,1.1826758E0,-1.7605453E0,-2.978395E-1,-1.0810965E-1,1.6688285E0,-9.097645E-2,-1.5276821E0,-1.4273506E0,9.5354676E-1,-1.2184573E0,1.0341219E0,1.2859334E0,8.845737E-2,-8.5193224E-2,-8.984983E-1,-8.800828E-2,-7.00235E-1,-1.761568E-1,1.5126984E0,-1.6476508E0,-2.184342E-1,-2.626024E-1,1.6066504E0,3.2196152E-1,1.6165036E0,-7.832739E-2,-6.920873E-2,-1.4039037E0,6.5440434E-1,-1.2202618E0,8.2987964E-1,1.1266986E0,8.627899E-2,-8.748112E-2,-1.2332097E0,-1.2772081E0,8.800758E-1,-1.0851237E0,7.0744663E-1,1.2508739E0,8.747971E-2,-7.470063E-1,1.0504664E0,1.0078201E0,8.722747E-2,-3.876439E-2,4.4376522E-2,-7.8119814E-2,-3.6392532E-2,-5.900895E-3,6.792212E-2,-7.9001985E-2,-4.0494007E-4,-1.9187113E-2,5.576619E-2,1.0228927E-2,6.751743E-2,-7.926195E-2,-2.8157902E-3,-8.2634345E-2,-1.50420545E-2,-1.51014915E-2,6.644201E-2,-7.417687E-2,-3.0745256E-3,-4.868682E-3,5.9736263E-2,2.2136223E-2,7.690451E-2,-6.9647245E-2,8.738554E-3,1.1287493E-2,6.896847E-2,-4.868682E-3,7.648594E-2],"categories":[],"categories_nodes":[],"categories_segments":[],"categories_sizes":[],"default_left":[0,0,0,0,0,0,0,0,0,0,0,0,0,0,0,0,0,0,0,0,0,0,0,0,0,0,0,0,0,0,0,0,0,0,0,0,0,0,0,0,0,0,0,0,0,0,0,0,0,0,0,0,0,0,0,0,0,0,0,0,0,0,0,0,0,0,0,0,0,0,0,0,0,0,0,0,0],"id":2,"left_children":[1,3,5,7,9,11,13,-1,15,17,19,21,23,25,-1,-1,27,-1,29,31,33,35,37,39,41,43,45,-1,47,49,51,53,55,57,-1,-1,59,61,63,65,67,69,-1,71,73,75,-1,-1,-1,-1,-1,-1,-1,-1,-1,-1,-1,-1,-1,-1,-1,-1,-1,-1,-1,-1,-1,-1,-1,-1,-1,-1,-1,-1,-1,-1,-1],"loss_changes":[1.6875945E3,1.653537E2,3.4215002E2,2.014038E0,1.4392198E2,1.9154362E2,1.2932983E1,0E0,6.9792023E0,1.1692902E1,3.0869904E1,3.2490303E1,5.5728477E1,2.6838913E1,0E0,0E0,1.0367902E1,0E0,1.8488247E1,1.8802399E1,7.273712E-1,9.9121094E-2,2.9197231E1,1.9658934E1,4.4680786E-1,1.8830639E1,3.2053528E0,0E0,7.0942507E0,1.9665909E-1,3.957945E0,3.7881422E0,3.6221614E0,2.7013721E0,0E0,0E0,5.683008E0,4.158243E0,6.9996977E0,5.295089E0,4.614302E0,3.5808067E0,0E0,6.183445E0,3.5394897E0,7.89913E0,0E0,0E0,0E0,0E0,0E0,0E0,0E0,0E0,0E0,0E0,0E0,0E0,0E0,0E0,0E0,0E0,0E0,0E0,0E0,0E0,0E0,0E0,0E0,0E0,0E0,0E0,0E0,0E0,0E0,0E0,0E0],"parents":[2147483647,0,0,1,1,2,2,3,3,4,4,5,5,6,6,8,8,9,9,10,10,11,11,12,12,13,13,16,16,18,18,19,19,20,20,21,21,22,22,23,23,24,24,25,25,26,26,28,28,29,29,30,30,31,31,32,32,33,33,36,36,37,37,38,38,39,39,40,40,41,41,43,43,44,44,45,45],"right_children":[2,4,6,8,10,12,14,-1,16,18,20,22,24,26,-1,-1,28,-1,30,32,34,36,38,40,42,44,46,-1,48,50,52,54,56,58,-1,-1,60,62,64,66,68,70,-1,72,74,76,-1,-1,-1,-1,-1,-1,-1,-1,-1,-1,-1,-1,-1,-1,-1,-1,-1,-1,-1,-1,-1,-1,-1,-1,-1,-1,-1,-1,-1,-1,-1],"split_conditions":[1E0,1E0,1E0,1E0,1E0,1E0,1E0,-9.097645E-2,1E0,1E0,1E0,1E0,1E0,1E0,8.845737E-2,-8.5193224E-2,1E0,-8.800828E-2,1E0,1E0,1E0,1E0,1E0,1E0,1E0,1E0,1E0,-7.832739E-2,1E0,1E0,1E0,1E0,1.2E1,1E0,8.627899E-2,-8.748112E-2,1E0,1E0,1E0,1E0,1E0,1E0,8.747971E-2,1E0,1E0,1E0,8.722747E-2,-3.876439E-2,4.4376522E-2,-7.8119814E-2,-3.6392532E-2,-5.900895E-3,6.792212E-2,-7.9001985E-2,-4.0494007E-4,-1.9187113E-2,5.576619E-2,1.0228927E-2,6.751743E-2,-7.926195E-2,-2.8157902E-3,-8.2634345E-2,-1.50420545E-2,-1.51014915E-2,6.644201E-2,-7.417687E-2,-3.0745256E-3,-4.868682E-3,5.9736263E-2,2.2136223E-2,7.690451E-2,-6.9647245E-2,8.738554E-3,1.1287493E-2,6.896847E-2,-4.868682E-3,7.648594E-2],"split_indices":[4,2,2,9,9,0,6,0,0,8,6,6,9,0,0,0,3,0,0,0,12,1,8,1,1,1,9,0,6,12,1,7,10,0,0,0,3,9,9,6,7,8,0,8,9,7,0,0,0,0,0,0,0,0,0,0,0,0,0,0,0,0,0,0,0,0,0,0,0,0,0,0,0,0,0,0,0],"split_type":[0,0,0,0,0,0,0,0,0,0,0,0,0,0,0,0,0,0,0,0,0,0,0,0,0,0,0,0,0,0,0,0,0,0,0,0,0,0,0,0,0,0,0,0,0,0,0,0,0,0,0,0,0,0,0,0,0,0,0,0,0,0,0,0,0,0,0,0,0,0,0,0,0,0,0,0,0],"sum_hessian":[9.9182404E2,4.4786896E2,5.439551E2,3.4800903E2,9.9859924E1,1.4903348E2,3.9492157E2,2.722381E2,7.577095E1,5.2411907E1,4.744802E1,7.5537636E1,7.349584E1,8.485747E1,3.1006412E2,5.786085E1,1.7910105E1,3.4980087E1,1.7431818E1,1.5936022E1,3.1511997E1,5.2400566E1,2.313707E1,2.267665E1,5.0819195E1,2.2173E1,6.268447E1,9.426993E0,8.483111E0,1.1448511E1,5.9833064E0,7.715562E0,8.22046E0,1.3438219E1,1.8073778E1,3.9467983E1,1.2932581E1,1.1698787E1,1.1438283E1,1.2207268E1,1.046938E1,1.7360655E1,3.3458538E1,8.976291E0,1.3196709E1,1.2436527E1,5.0247944E1,4.990068E0,3.4930432E0,8.212202E0,3.236309E0,3.2499998E0,2.7333066E0,5.715636E0,1.9999262E0,1.4997232E0,6.720737E0,2.9968376E0,1.0441381E1,9.6878195E0,3.2447617E0,7.9491243E0,3.7496629E0,3.237431E0,8.200851E0,8.463758E0,3.7435093E0,4.249993E0,6.219388E0,5.218533E0,1.2142121E1,4.9772882E0,3.9990027E0,4.2432427E0,8.953465E0,4.249993E0,8.186535E0],"tree_param":{"num_deleted":"0","num_feature":"13","num_nodes":"77","size_leaf_vector":"1"}},{"base_weights":[-2.1061636E-5,-1.3775564E0,1.1348667E0,-1.6899616E0,-2.8529868E-1,-1.03807755E-1,1.6027739E0,-8.735826E-2,-1.4647284E0,-1.3695747E0,9.146691E-1,-1.1691003E0,9.91803E-1,1.2134113E0,8.484868E-2,-8.187842E-2,-8.499452E-1,-8.4535934E-2,-6.7112297E-1,-1.7067157E-1,1.4535859E0,-1.5818195E0,-2.1048115E-1,-2.5128162E-1,1.5434829E0,3.007582E-1,1.5460612E0,-1.4043629E0,8.513664E-2,-1.3500087E0,6.322356E-1,-1.1744165E0,7.9505306E-1,1.0807277E0,8.301829E-2,-8.508686E-2,-1.2357057E0,-1.2273753E0,8.439027E-1,-1.0306499E0,7.0332545E-1,1.1474323E0,8.3092764E-2,-6.028199E-1,9.677268E-1,1.0404419E0,8.426519E-2,-7.685068E-2,-7.3909904E-3,-4.8500422E-2,3.676426E-2,-7.50994E-2,-3.5075422E-2,-5.6753037E-3,6.575205E-2,-7.614625E-2,-3.9144463E-4,-1.861557E-2,5.355084E-2,1.9960923E-2,6.9959685E-2,-7.524906E-2,-2.7084155E-3,-7.9536244E-2,-1.4450634E-2,-1.4531045E-2,6.384267E-2,-7.7101596E-2,-3.7911234E-3,-2.2377517E-2,7.349995E-2,8.5644815E-3,7.562732E-2,-6.1116006E-2,1.0834818E-2,-4.671605E-3,7.362392E-2,-1.5787374E-3,7.0771344E-2],"categories":[],"categories_nodes":[],"categories_segments":[],"categories_sizes":[],"default_left":[0,0,0,0,0,0,0,0,0,0,0,0,0,0,0,0,0,0,0,0,0,0,0,0,0,0,0,0,0,0,0,0,0,0,0,0,0,0,0,0,0,0,0,0,0,0,0,0,0,0,0,0,0,0,0,0,0,0,0,0,0,0,0,0,0,0,0,0,0,0,0,0,0,0,0,0,0,0,0],"id":3,"left_children":[1,3,5,7,9,11,13,-1,15,17,19,21,23,25,-1,-1,27,-1,29,31,33,35,37,39,41,43,45,47,49,51,53,55,57,59,-1,-1,61,63,65,67,69,71,-1,73,75,77,-1,-1,-1,-1,-1,-1,-1,-1,-1,-1,-1,-1,-1,-1,-1,-1,-1,-1,-1,-1,-1,-1,-1,-1,-1,-1,-1,-1,-1,-1,-1,-1,-1],"loss_changes":[1.5392832E3,1.5128094E2,3.130551E2,1.894104E0,1.3151797E2,1.7501071E2,1.2314758E1,0E0,6.704056E0,1.0752434E1,2.8396198E1,2.9728203E1,5.11175E1,2.377758E1,0E0,0E0,9.865292E0,0E0,1.7090508E1,1.7278862E1,6.929703E-1,9.527588E-2,2.679079E1,1.8281622E1,5.016861E-1,1.4186482E1,2.3496704E0,1.7494164E0,6.1601105E0,1.6695595E-1,3.696199E0,3.5138073E0,3.359352E0,2.5610218E0,0E0,0E0,5.4159718E0,3.8482819E0,6.4547834E0,6.4246273E0,1.0541044E1,5.105604E0,0E0,5.4442434E0,7.298854E0,6.1539917E0,0E0,0E0,0E0,0E0,0E0,0E0,0E0,0E0,0E0,0E0,0E0,0E0,0E0,0E0,0E0,0E0,0E0,0E0,0E0,0E0,0E0,0E0,0E0,0E0,0E0,0E0,0E0,0E0,0E0,0E0,0E0,0E0,0E0],"parents":[2147483647,0,0,1,1,2,2,3,3,4,4,5,5,6,6,8,8,9,9,10,10,11,11,12,12,13,13,16,16,18,18,19,19,20,20,21,21,22,22,23,23,24,24,25,25,26,26,27,27,28,28,29,29,30,30,31,31,32,32,33,33,36,36,37,37,38,38,39,39,40,40,41,41,43,43,44,44,45,45],"right_children":[2,4,6,8,10,12,14,-1,16,18,20,22,24,26,-1,-1,28,-1,30,32,34,36,38,40,42,44,46,48,50,52,54,56,58,60,-1,-1,62,64,66,68,70,72,-1,74,76,78,-1,-1,-1,-1,-1,-1,-1,-1,-1,-1,-1,-1,-1,-1,-1,-1,-1,-1,-1,-1,-1,-1,-1,-1,-1,-1,-1,-1,-1,-1,-1,-1,-1],"split_conditions":[1E0,1E0,1E0,1E0,1E0,1E0,1E0,-8.735826E-2,1E0,1E0,1E0,1E0,1E0,1E0,8.484868E-2,-8.187842E-2,1E0,-8.4535934E-2,1E0,1E0,1E0,1E0,1E0,1E0,1E0,1E0,1E0,5.2E1,1E0,1E0,1E0,1E0,1.2E1,1E0,8.301829E-2,-8.508686E-2,1E0,1E0,1E0,1E0,1E0,1E0,8.3092764E-2,1E0,1E0,1E0,8.426519E-2,-7.685068E-2,-7.3909904E-3,-4.8500422E-2,3.676426E-2,-7.50994E-2,-3.5075422E-2,-5.6753037E-3,6.575205E-2,-7.614625E-2,-3.9144463E-4,-1.861557E-2,5.355084E-2,1.9960923E-2,6.9959685E-2,-7.524906E-2,-2.7084155E-3,-7.9536244E-2,-1.4450634E-2,-1.4531045E-2,6.384267E-2,-7.7101596E-2,-3.7911234E-3,-2.2377517E-2,7.349995E-2,8.5644815E-3,7.562732E-2,-6.1116006E-2,1.0834818E-2,-4.671605E-3,7.362392E-2,-1.5787374E-3,7.0771344E-2],"split_indices":[4,2,2,9,9,0,9,0,6,8,6,6,9,6,0,0,1,0,0,0,12,3,8,6,6,0,0,10,3,12,1,7,10,7,0,0,1,9,9,11,7,8,0,1,7,1,0,0,0,0,0,0,0,0,0,0,0,0,0,0,0,0,0,0,0,0,0,0,0,0,0,0,0,0,0,0,0,0,0],"split_type":[0,0,0,0,0,0,0,0,0,0,0,0,0,0,0,0,0,0,0,0,0,0,0,0,0,0,0,0,0,0,0,0,0,0,0,0,0,0,0,0,0,0,0,0,0,0,0,0,0,0,0,0,0,0,0,0,0,0,0,0,0,0,0,0,0,0,0,0,0,0,0,0,0,0,0,0,0,0,0],"sum_hessian":[9.826068E2,4.4375714E2,5.388497E2,3.446375E2,9.911963E1,1.479541E2,3.9089554E2,2.6944733E2,7.51902E1,5.199566E1,4.7123974E1,7.4980965E1,7.2973145E1,7.8851974E1,3.1204358E2,5.739151E1,1.7798693E1,3.464529E1,1.7350368E1,1.5862107E1,3.1261868E1,5.1960182E1,2.3020784E1,2.259807E1,5.0375072E1,2.157186E1,5.728011E1,1.0858649E1,6.9400425E0,1.1384621E1,5.9657474E0,7.671982E0,8.1901245E0,1.337357E1,1.7888296E1,3.5681103E1,1.6279081E1,1.1635209E1,1.1385574E1,1.2397082E1,1.0200988E1,1.4052293E1,3.6322777E1,9.201829E0,1.2370031E1,1.4197635E1,4.3082478E1,9.619888E0,1.2387607E0,2.4583442E0,4.4816985E0,8.156913E0,3.2277074E0,3.249976E0,2.7157712E0,5.672051E0,1.9999311E0,1.4991944E0,6.6909304E0,4.976835E0,8.396735E0,1.3034693E1,3.2443886E0,7.8862925E0,3.7489164E0,3.2356007E0,8.149974E0,7.672758E0,4.724324E0,4.2449756E0,5.9560122E0,4.2252107E0,9.827083E0,4.9605026E0,4.241327E0,4.2499948E0,8.120036E0,3.9165888E0,1.0281046E1],"tree_param":{"num_deleted":"0","num_feature":"13","num_nodes":"79","size_leaf_vector":"1"}},{"base_weights":[-9.515926E-5,-1.3258115E0,1.0919483E0,-1.6276444E0,-2.7379748E-1,-1.00050345E-1,1.5437931E0,-8.41774E-2,-1.408338E0,-1.3176951E0,8.794729E-1,-1.1246023E0,9.530044E-1,1.1804065E0,8.198055E-2,-8.186656E-2,-9.451362E-1,-8.146139E-2,-6.442375E-1,-1.6562562E-1,1.4004388E0,-1.5230205E0,-2.0316474E-1,-2.4095145E-1,1.4867384E0,2.7325153E-1,1.4957238E0,-1.4308819E0,-1.1083445E-1,-1.300678E0,6.113515E-1,-1.1323477E0,7.624376E-1,1.0389304E0,8.011989E-2,-8.09708E-2,-1.1341641E0,-1.1817366E0,8.10253E-1,-1.0148218E0,6.690818E-1,1.1449597E0,8.128788E-2,-7.2358906E-1,9.5784116E-1,9.3066937E-1,8.0792546E-2,-7.898802E-2,-3.087796E-3,-3.582345E-2,5.224926E-2,-7.272422E-2,-3.2968428E-2,-5.458421E-3,6.37486E-2,-7.356573E-2,-3.783943E-4,-1.8062972E-2,5.1483225E-2,8.645137E-3,6.263849E-2,-7.317874E-2,-2.6051314E-3,-7.675761E-2,-1.38835935E-2,-1.3983152E-2,6.1448272E-2,-7.634299E-2,-1.2860849E-2,-3.5976034E-3,5.5951744E-2,1.9208185E-2,7.103625E-2,-6.6269346E-2,6.8371333E-3,1.2366591E-2,6.734416E-2,-4.4825706E-3,7.102782E-2],"categories":[],"categories_nodes":[],"categories_segments":[],"categories_sizes":[],"default_left":[0,0,0,0,0,0,0,0,0,0,0,0,0,0,0,0,0,0,0,0,0,0,0,0,0,0,0,0,0,0,0,0,0,0,0,0,0,0,0,0,0,0,0,0,0,0,0,0,0,0,0,0,0,0,0,0,0,0,0,0,0,0,0,0,0,0,0,0,0,0,0,0,0,0,0,0,0,0,0],"id":4,"left_children":[1,3,5,7,9,11,13,-1,15,17,19,21,23,25,-1,-1,27,-1,29,31,33,35,37,39,41,43,45,47,49,51,53,55,57,59,-1,-1,61,63,65,67,69,71,-1,73,75,77,-1,-1,-1,-1,-1,-1,-1,-1,-1,-1,-1,-1,-1,-1,-1,-1,-1,-1,-1,-1,-1,-1,-1,-1,-1,-1,-1,-1,-1,-1,-1,-1,-1],"loss_changes":[1.4082554E3,1.3906445E2,2.8742645E2,1.8121948E0,1.2053062E2,1.6026154E2,1.1533264E1,0E0,6.452942E0,9.953651E0,2.620766E1,2.7314072E1,4.7070724E1,2.3700378E1,0E0,0E0,1.09122505E1,0E0,1.5830164E1,1.590465E1,6.6744614E-1,1.266098E-1,2.4626993E1,1.7232962E1,5.5213165E-1,1.6364023E1,2.7264557E0,3.4046326E0,8.54417E0,2.5405502E-1,3.4589725E0,3.2730322E0,3.1199145E0,2.4303675E0,0E0,0E0,4.821951E0,3.5833607E0,5.965273E0,4.6892996E0,3.8833723E0,3.2450848E0,0E0,5.316862E0,3.5489836E0,6.76756E0,0E0,0E0,0E0,0E0,0E0,0E0,0E0,0E0,0E0,0E0,0E0,0E0,0E0,0E0,0E0,0E0,0E0,0E0,0E0,0E0,0E0,0E0,0E0,0E0,0E0,0E0,0E0,0E0,0E0,0E0,0E0,0E0,0E0],"parents":[2147483647,0,0,1,1,2,2,3,3,4,4,5,5,6,6,8,8,9,9,10,10,11,11,12,12,13,13,16,16,18,18,19,19,20,20,21,21,22,22,23,23,24,24,25,25,26,26,27,27,28,28,29,29,30,30,31,31,32,32,33,33,36,36,37,37,38,38,39,39,40,40,41,41,43,43,44,44,45,45],"right_children":[2,4,6,8,10,12,14,-1,16,18,20,22,24,26,-1,-1,28,-1,30,32,34,36,38,40,42,44,46,48,50,52,54,56,58,60,-1,-1,62,64,66,68,70,72,-1,74,76,78,-1,-1,-1,-1,-1,-1,-1,-1,-1,-1,-1,-1,-1,-1,-1,-1,-1,-1,-1,-1,-1,-1,-1,-1,-1,-1,-1,-1,-1,-1,-1,-1,-1],"split_conditions":[1E0,1E0,1E0,1E0,1E0,1E0,1E0,-8.41774E-2,1E0,1E0,1E0,1E0,1E0,1E0,8.198055E-2,-8.186656E-2,1E0,-8.146139E-2,1E0,1E0,1E0,1E0,1E0,1E0,1E0,1E0,1E0,5.5E1,1E0,1E0,1E0,1E0,1.2E1,1E0,8.011989E-2,-8.09708E-2,1E0,1E0,1E0,1E0,1E0,1E0,8.128788E-2,1E0,1E0,1E0,8.0792546E-2,-7.898802E-2,-3.087796E-3,-3.582345E-2,5.224926E-2,-7.272422E-2,-3.2968428E-2,-5.458421E-3,6.37486E-2,-7.356573E-2,-3.783943E-4,-1.8062972E-2,5.1483225E-2,8.645137E-3,6.263849E-2,-7.317874E-2,-2.6051314E-3,-7.675761E-2,-1.38835935E-2,-1.3983152E-2,6.1448272E-2,-7.634299E-2,-1.2860849E-2,-3.5976034E-3,5.5951744E-2,1.9208185E-2,7.103625E-2,-6.6269346E-2,6.8371333E-3,1.2366591E-2,6.734416E-2,-4.4825706E-3,7.102782E-2],"split_indices":[4,2,2,9,9,0,6,0,3,8,6,6,9,0,0,0,1,0,0,0,12,1,8,1,1,1,9,10,12,6,1,7,10,0,0,0,3,9,9,3,7,8,0,8,3,7,0,0,0,0,0,0,0,0,0,0,0,0,0,0,0,0,0,0,0,0,0,0,0,0,0,0,0,0,0,0,0,0,0],"split_type":[0,0,0,0,0,0,0,0,0,0,0,0,0,0,0,0,0,0,0,0,0,0,0,0,0,0,0,0,0,0,0,0,0,0,0,0,0,0,0,0,0,0,0,0,0,0,0,0,0,0,0,0,0,0,0,0,0,0,0,0,0,0,0,0,0,0,0,0,0,0,0,0,0,0,0,0,0,0,0],"sum_hessian":[9.7072675E2,4.3835703E2,5.323697E2,3.402025E2,9.81545E1,1.4654697E2,3.8582275E2,2.6577658E2,7.442594E1,5.1445427E1,4.6709072E1,7.4244286E1,7.230268E1,8.328519E1,3.0253757E2,4.8107967E1,2.6317972E1,3.4203934E1,1.7241493E1,1.5765106E1,3.0943964E1,5.1376743E1,2.286754E1,2.2505882E1,4.9796795E1,2.196355E1,6.1321632E1,1.6181652E1,1.0136319E1,1.1298539E1,5.9429536E0,7.613913E0,8.151193E0,1.3293231E1,1.7650734E1,3.8634815E1,1.2741927E1,1.1549283E1,1.1318256E1,1.2100641E1,1.0405241E1,1.7068893E1,3.27279E1,8.919205E0,1.3044347E1,1.2284608E1,4.9037025E1,1.4455877E1,1.7257758E0,6.900609E0,3.2357097E0,8.090249E0,3.2082906E0,3.2498999E0,2.6930537E0,5.6139774E0,1.9999356E0,1.4984181E0,6.652775E0,2.990515E0,1.0302716E1,9.4979105E0,3.2440174E0,7.8014836E0,3.7477996E0,3.233496E0,8.084761E0,6.6146536E0,5.485987E0,4.2484694E0,6.1567717E0,5.1776376E0,1.1891255E1,4.930083E0,3.9891217E0,5.194094E0,7.8502526E0,4.249949E0,8.034659E0],"tree_param":{"num_deleted":"0","num_feature":"13","num_nodes":"79","size_leaf_vector":"1"}},{"base_weights":[-1.5516327E-4,-1.2795467E0,1.053436E0,-1.5722077E0,-2.634763E-1,-9.663134E-2,1.4912086E0,-8.136134E-2,-1.3572954E0,-1.270749E0,8.468898E-1,-1.084222E0,9.175753E-1,1.1181291E0,7.910128E-2,-7.629471E-2,-7.6461583E-1,-7.872027E-2,-6.192149E-1,-1.6096506E-1,1.3516386E0,-1.4701527E0,-1.9640039E-1,-2.3179643E-1,1.4353956E0,2.681194E-1,1.433145E0,-6.9850035E-2,-3.4913663E-3,-1.2551024E0,5.916322E-1,-1.0935502E0,7.317917E-1,9.9902713E-1,7.752711E-2,-7.9273306E-2,-1.1402744E0,-1.1397096E0,7.788207E-1,-9.6860313E-1,6.674978E-1,1.0526065E0,7.7727966E-2,-5.762181E-1,8.962538E-1,9.3836474E-1,7.857865E-2,-3.0117188E-2,4.817422E-2,-7.457571E-2,-3.7261095E-2,-1.7687833E-2,5.2301694E-2,-7.1221285E-2,-3.6577324E-4,-1.7528502E-2,4.9546015E-2,1.7624117E-2,6.5354444E-2,-6.9734596E-2,-2.5057893E-3,-7.425072E-2,-1.3339767E-2,6.0446555E-4,6.883423E-2,-7.2725445E-2,-3.5500997E-3,-2.0738358E-2,6.968265E-2,3.1077273E-3,6.4455375E-2,-5.7207804E-2,8.749167E-3,-4.3012E-3,6.865933E-2,-4.811179E-3,6.5532885E-2],"categories":[],"categories_nodes":[],"categories_segments":[],"categories_sizes":[],"default_left":[0,0,0,0,0,0,0,0,0,0,0,0,0,0,0,0,0,0,0,0,0,0,0,0,0,0,0,0,0,0,0,0,0,0,0,0,0,0,0,0,0,0,0,0,0,0,0,0,0,0,0,0,0,0,0,0,0,0,0,0,0,0,0,0,0,0,0,0,0,0,0,0,0,0,0,0,0],"id":5,"left_children":[1,3,5,7,9,11,13,-1,15,17,19,21,23,25,-1,-1,27,-1,29,31,33,35,37,39,41,43,45,-1,47,49,51,53,55,57,-1,-1,59,61,63,65,67,69,-1,71,73,75,-1,-1,-1,-1,-1,-1,-1,-1,-1,-1,-1,-1,-1,-1,-1,-1,-1,-1,-1,-1,-1,-1,-1,-1,-1,-1,-1,-1,-1,-1,-1],"loss_changes":[1.2919795E3,1.2830078E2,2.6477704E2,1.7625732E0,1.1067982E2,1.470856E2,1.1132141E1,0E0,6.2761536E0,9.270119E0,2.4235485E1,2.5188148E1,4.3481895E1,2.0488907E1,0E0,0E0,8.899775E0,0E0,1.4686874E1,1.4661206E1,6.6477966E-1,1.5771484E-1,2.2674328E1,1.6137465E1,6.4987946E-1,1.2347714E1,2.4049606E0,0E0,6.02256E0,3.5847282E-1,3.3408852E0,3.0601692E0,2.9010482E0,2.3666162E0,0E0,0E0,4.6300163E0,3.3547993E0,5.5935082E0,5.679325E0,9.317549E0,3.4324875E0,0E0,4.5198874E0,6.2941647E0,5.851754E0,0E0,0E0,0E0,0E0,0E0,0E0,0E0,0E0,0E0,0E0,0E0,0E0,0E0,0E0,0E0,0E0,0E0,0E0,0E0,0E0,0E0,0E0,0E0,0E0,0E0,0E0,0E0,0E0,0E0,0E0,0E0],"parents":[2147483647,0,0,1,1,2,2,3,3,4,4,5,5,6,6,8,8,9,9,10,10,11,11,12,12,13,13,16,16,18,18,19,19,20,20,21,21,22,22,23,23,24,24,25,25,26,26,28,28,29,29,30,30,31,31,32,32,33,33,36,36,37,37,38,38,39,39,40,40,41,41,43,43,44,44,45,45],"right_children":[2,4,6,8,10,12,14,-1,16,18,20,22,24,26,-1,-1,28,-1,30,32,34,36,38,40,42,44,46,-1,48,50,52,54,56,58,-1,-1,60,62,64,66,68,70,-1,72,74,76,-1,-1,-1,-1,-1,-1,-1,-1,-1,-1,-1,-1,-1,-1,-1,-1,-1,-1,-1,-1,-1,-1,-1,-1,-1,-1,-1,-1,-1,-1,-1],"split_conditions":[1E0,1E0,1E0,1E0,1E0,1E0,1E0,-8.136134E-2,1E0,1E0,1E0,1E0,1E0,1E0,7.910128E-2,-7.629471E-2,1E0,-7.872027E-2,1E0,1E0,1E0,1E0,1E0,1E0,1E0,1E0,1E0,-6.9850035E-2,1E0,1E0,1E0,1E0,1.2E1,1E0,7.752711E-2,-7.9273306E-2,1E0,1E0,1E0,1E0,1E0,1E0,7.7727966E-2,1E0,1E0,1E0,7.857865E-2,-3.0117188E-2,4.817422E-2,-7.457571E-2,-3.7261095E-2,-1.7687833E-2,5.2301694E-2,-7.1221285E-2,-3.6577324E-4,-1.7528502E-2,4.9546015E-2,1.7624117E-2,6.5354444E-2,-6.9734596E-2,-2.5057893E-3,-7.425072E-2,-1.3339767E-2,6.0446555E-4,6.883423E-2,-7.2725445E-2,-3.5500997E-3,-2.0738358E-2,6.968265E-2,3.1077273E-3,6.4455375E-2,-5.7207804E-2,8.749167E-3,-4.3012E-3,6.865933E-2,-4.811179E-3,6.5532885E-2],"split_indices":[4,2,2,9,9,0,9,0,0,8,6,6,9,6,0,0,3,0,0,0,12,3,8,6,3,0,0,0,12,3,3,7,10,7,0,0,1,9,12,11,7,7,0,1,7,1,0,0,0,0,0,0,0,0,0,0,0,0,0,0,0,0,0,0,0,0,0,0,0,0,0,0,0,0,0,0,0],"split_type":[0,0,0,0,0,0,0,0,0,0,0,0,0,0,0,0,0,0,0,0,0,0,0,0,0,0,0,0,0,0,0,0,0,0,0,0,0,0,0,0,0,0,0,0,0,0,0,0,0,0,0,0,0,0,0,0,0,0,0,0,0,0,0,0,0,0,0,0,0,0,0,0,0,0,0,0,0],"sum_hessian":[9.564734E2,4.3185315E2,5.2462024E2,3.3485638E2,9.699676E1,1.4485432E2,3.797659E2,2.613718E2,7.348461E1,5.07837E1,4.621306E1,7.335518E1,7.1499146E1,7.6952835E1,3.0281308E2,5.5984264E1,1.7500345E1,3.367332E1,1.7110382E1,1.5648362E1,3.0564697E1,5.0672314E1,2.2682867E1,2.2378784E1,4.9120358E1,2.1308117E1,5.5644714E1,9.102246E0,8.398099E0,1.1194787E1,5.915594E0,7.5434566E0,8.104906E0,1.3195215E1,1.7369482E1,3.472686E1,1.5945454E1,1.14443445E1,1.1238523E1,1.2258292E1,1.0120493E1,1.3995605E1,3.5124752E1,9.12498E0,1.2183136E1,1.3865225E1,4.177949E1,5.4191074E0,2.9789922E0,6.3331356E0,4.8616514E0,1.9922271E0,3.923367E0,5.5435166E0,1.9999398E0,1.4974174E0,6.607488E0,4.9501915E0,8.245024E0,1.2701804E1,3.2436492E0,7.697985E0,3.7463593E0,5.370867E0,5.8676553E0,7.550486E0,4.707806E0,4.2359824E0,5.8845105E0,2.9411314E0,1.1054474E1,4.8984547E0,4.226526E0,4.2498627E0,7.933274E0,3.8652825E0,9.999942E0],"tree_param":{"num_deleted":"0","num_feature":"13","num_nodes":"77","size_leaf_vector":"1"}},{"base_weights":[-2.1385911E-4,-1.2377913E0,1.0183481E0,-1.5224428E0,-2.5416312E-1,-9.340166E-2,1.4435787E0,-7.885279E-2,-1.3102881E0,-1.228335E0,8.1707954E-1,-1.0465766E0,8.847151E-1,1.0927178E0,7.6846085E-2,-7.390189E-2,-7.241686E-1,-7.626119E-2,-5.9721804E-1,-1.5664451E-1,1.3072683E0,-1.4661853E0,-2.674354E-1,-2.2275479E-1,1.3882216E0,2.3060669E-1,1.3980188E0,-6.777432E-2,2.8079873E-2,-1.2131392E0,5.690942E-1,-1.0576034E0,7.029093E-1,6.758368E-2,2.0565672E-2,-7.8719E-2,-1.0396498E0,-1.0748261E0,7.209728E-1,-9.5563674E-1,6.3500065E-1,1.0043607E0,7.530573E-2,-7.0369166E-1,8.777496E-1,8.6415064E-1,7.567268E-2,-3.072687E-2,5.801738E-2,-7.219138E-2,-3.5910886E-2,-1.0543643E-2,5.6397583E-2,-6.908068E-2,-3.535814E-4,-9.35712E-3,5.1016252E-2,-6.915354E-2,-7.962099E-3,-7.3364034E-2,-1.1431329E-2,-1.2818086E-2,5.7924476E-2,-7.012277E-2,-9.17547E-3,-2.4497083E-3,5.264423E-2,4.2167045E-3,6.821626E-2,-6.337531E-2,5.138074E-3,9.753205E-3,6.300891E-2,-4.1271993E-3,6.648687E-2],"categories":[],"categories_nodes":[],"categories_segments":[],"categories_sizes":[],"default_left":[0,0,0,0,0,0,0,0,0,0,0,0,0,0,0,0,0,0,0,0,0,0,0,0,0,0,0,0,0,0,0,0,0,0,0,0,0,0,0,0,0,0,0,0,0,0,0,0,0,0,0,0,0,0,0,0,0,0,0,0,0,0,0,0,0,0,0,0,0,0,0,0,0,0,0],"id":6,"left_children":[1,3,5,7,9,11,13,-1,15,17,19,21,23,25,-1,-1,27,-1,29,31,33,35,37,39,41,43,45,-1,47,49,51,53,55,-1,-1,-1,57,59,61,63,65,67,-1,69,71,73,-1,-1,-1,-1,-1,-1,-1,-1,-1,-1,-1,-1,-1,-1,-1,-1,-1,-1,-1,-1,-1,-1,-1,-1,-1,-1,-1,-1,-1],"loss_changes":[1.1880071E3,1.1874408E2,2.4453265E2,1.7546387E0,1.0191212E2,1.3514922E2,1.0569397E1,0E0,6.148979E0,8.652832E0,2.2472933E1,2.3595573E1,4.0232494E1,2.1273735E1,0E0,0E0,8.728499E0,0E0,1.3601263E1,1.35328865E1,6.8289566E-1,5.536728E-1,2.2246721E1,1.521557E1,7.209549E-1,1.4315742E1,2.4141388E0,0E0,7.5014215E0,3.4232712E-1,3.2419653E0,2.870719E0,2.7483907E0,0E0,0E0,0E0,3.5737076E0,4.7158756E0,5.7255626E0,4.203787E0,3.2837677E0,4.7197027E0,0E0,4.597993E0,3.3647938E0,5.8698034E0,0E0,0E0,0E0,0E0,0E0,0E0,0E0,0E0,0E0,0E0,0E0,0E0,0E0,0E0,0E0,0E0,0E0,0E0,0E0,0E0,0E0,0E0,0E0,0E0,0E0,0E0,0E0,0E0,0E0],"parents":[2147483647,0,0,1,1,2,2,3,3,4,4,5,5,6,6,8,8,9,9,10,10,11,11,12,12,13,13,16,16,18,18,19,19,20,20,21,21,22,22,23,23,24,24,25,25,26,26,28,28,29,29,30,30,31,31,32,32,36,36,37,37,38,38,39,39,40,40,41,41,43,43,44,44,45,45],"right_children":[2,4,6,8,10,12,14,-1,16,18,20,22,24,26,-1,-1,28,-1,30,32,34,36,38,40,42,44,46,-1,48,50,52,54,56,-1,-1,-1,58,60,62,64,66,68,-1,70,72,74,-1,-1,-1,-1,-1,-1,-1,-1,-1,-1,-1,-1,-1,-1,-1,-1,-1,-1,-1,-1,-1,-1,-1,-1,-1,-1,-1,-1,-1],"split_conditions":[1E0,1E0,1E0,1E0,1E0,1E0,1E0,-7.885279E-2,1E0,1E0,1E0,1E0,1E0,1E0,7.6846085E-2,-7.390189E-2,1E0,-7.626119E-2,1E0,1E0,5.5E1,1E0,1E0,1E0,1E0,1E0,1E0,-6.777432E-2,1E0,1E0,1E0,1E0,2E1,6.758368E-2,2.0565672E-2,-7.8719E-2,1E0,1E0,1E0,1E0,1E0,1E0,7.530573E-2,1E0,1E0,1E0,7.567268E-2,-3.072687E-2,5.801738E-2,-7.219138E-2,-3.5910886E-2,-1.0543643E-2,5.6397583E-2,-6.908068E-2,-3.535814E-4,-9.35712E-3,5.1016252E-2,-6.915354E-2,-7.962099E-3,-7.3364034E-2,-1.1431329E-2,-1.2818086E-2,5.7924476E-2,-7.012277E-2,-9.17547E-3,-2.4497083E-3,5.264423E-2,4.2167045E-3,6.821626E-2,-6.337531E-2,5.138074E-3,9.753205E-3,6.300891E-2,-4.1271993E-3,6.648687E-2],"split_indices":[4,2,2,9,9,0,6,0,6,8,6,9,9,0,0,0,3,0,0,0,10,1,6,1,6,1,9,0,8,3,12,7,10,0,0,0,12,7,8,7,7,8,0,8,3,7,0,0,0,0,0,0,0,0,0,0,0,0,0,0,0,0,0,0,0,0,0,0,0,0,0,0,0,0,0],"split_type":[0,0,0,0,0,0,0,0,0,0,0,0,0,0,0,0,0,0,0,0,0,0,0,0,0,0,0,0,0,0,0,0,0,0,0,0,0,0,0,0,0,0,0,0,0,0,0,0,0,0,0,0,0,0,0,0,0,0,0,0,0,0,0,0,0,0,0,0,0,0,0,0,0,0,0],"sum_hessian":[9.4045184E2,4.244814E2,5.1597046E2,3.2878638E2,9.569503E1,1.4296754E2,3.7300293E2,2.5636053E2,7.242585E1,5.004145E1,4.5653584E1,7.2371506E1,7.059603E1,8.1051125E1,2.9195178E2,5.5126644E1,1.7299208E1,3.306865E1,1.69728E1,1.5514869E1,3.0138714E1,4.6465553E1,2.5905954E1,2.2238884E1,4.835715E1,2.1655506E1,5.9395622E1,8.969621E0,8.329586E0,1.1080904E1,5.8918953E0,7.4624944E0,8.052375E0,2.8230894E1,1.9078203E0,3.491736E1,1.1548193E1,1.4210522E1,1.1695433E1,1.1930841E1,1.0308043E1,1.359874E1,3.475841E1,8.825911E0,1.28295965E1,1.2068178E1,4.7327442E1,5.6054626E0,2.7241235E0,6.25029E0,4.8306136E0,2.7193365E0,3.172559E0,5.4625506E0,1.9999437E0,2.2246764E0,5.8276987E0,7.896903E0,3.6512902E0,9.206652E0,5.00387E0,3.7446358E0,7.950797E0,7.0403447E0,4.8904967E0,4.2440743E0,6.0639687E0,4.1714044E0,9.427336E0,4.8579054E0,3.9680054E0,5.1486473E0,7.680949E0,4.2497387E0,7.8184395E0],"tree_param":{"num_deleted":"0","num_feature":"13","num_nodes":"75","size_leaf_vector":"1"}},{"base_weights":[-3.3408485E-4,-1.1999682E0,9.8640215E-1,-1.4775854E0,-2.4600083E-1,-9.0600036E-2,1.4006321E0,-7.66058E-2,-1.2670671E0,-1.1891824E0,7.8779674E-1,-1.0122784E0,8.543369E-1,1.0378777E0,7.448352E-2,-1.4754044E0,-7.902998E-1,-7.16804E-2,-4.6969154E-1,-1.5191375E-1,1.2634226E0,-1.3799058E0,-1.7748705E-1,-2.1425088E-1,1.3454546E0,2.3970428E-1,1.3400545E0,-7.623127E-2,-8.0429035E-1,-6.5812804E-2,-3.822403E-2,-6.25641E-2,5.491796E-1,-1.0241528E0,6.765051E-1,9.124829E-1,7.338244E-2,-7.479263E-2,-1.0540112E0,-1.1047298E0,6.938849E-1,-9.164691E-1,6.405032E-1,1.0087401E0,7.430669E-2,-4.8336226E-1,9.28809E-1,8.4888464E-1,7.400827E-2,-5.8425277E-2,5.731501E-4,-3.0411383E-2,5.0923415E-2,-6.3927993E-3,5.957825E-2,-6.711709E-2,-3.4179492E-4,-9.033189E-3,4.9236875E-2,1.4488553E-2,6.0951192E-2,-6.5284885E-2,-7.8571326E-4,-7.215213E-2,1.807289E-2,-1.2317493E-2,5.594904E-2,-6.913435E-2,-3.3782762E-3,-1.8583074E-2,6.6228665E-2,1.4368966E-2,6.411269E-2,-5.208805E-2,2.7248964E-3,1.2549929E-3,6.901944E-2,-7.7409646E-3,6.1127324E-2],"categories":[],"categories_nodes":[],"categories_segments":[],"categories_sizes":[],"default_left":[0,0,0,0,0,0,0,0,0,0,0,0,0,0,0,0,0,0,0,0,0,0,0,0,0,0,0,0,0,0,0,0,0,0,0,0,0,0,0,0,0,0,0,0,0,0,0,0,0,0,0,0,0,0,0,0,0,0,0,0,0,0,0,0,0,0,0,0,0,0,0,0,0,0,0,0,0,0,0],"id":7,"left_children":[1,3,5,7,9,11,13,-1,15,17,19,21,23,25,-1,27,29,-1,31,33,35,37,39,41,43,45,47,-1,49,-1,51,-1,53,55,57,59,-1,-1,61,63,65,67,69,71,-1,73,75,77,-1,-1,-1,-1,-1,-1,-1,-1,-1,-1,-1,-1,-1,-1,-1,-1,-1,-1,-1,-1,-1,-1,-1,-1,-1,-1,-1,-1,-1,-1,-1],"loss_changes":[1.0947716E3,1.1017938E2,2.2651672E2,1.7678833E0,9.384771E1,1.2444863E2,1.0293335E1,0E0,6.011116E0,8.159485E0,2.0779133E1,2.1940712E1,3.734338E1,1.7897652E1,0E0,3.966751E-1,9.493116E0,0E0,1.2013802E1,1.2522687E1,8.603668E-1,3.1422424E-1,1.9551874E1,1.4449468E1,7.988434E-1,1.1391865E1,2.4993134E0,0E0,1.6396701E0,0E0,7.2201533E0,0E0,3.1399798E0,2.7010632E0,2.555501E0,2.306446E0,0E0,0E0,4.295843E0,6.300172E0,5.311866E0,5.0874357E0,8.112093E0,3.0662766E0,0E0,3.473017E0,4.6940937E0,5.61154E0,0E0,0E0,0E0,0E0,0E0,0E0,0E0,0E0,0E0,0E0,0E0,0E0,0E0,0E0,0E0,0E0,0E0,0E0,0E0,0E0,0E0,0E0,0E0,0E0,0E0,0E0,0E0,0E0,0E0,0E0,0E0],"parents":[2147483647,0,0,1,1,2,2,3,3,4,4,5,5,6,6,8,8,9,9,10,10,11,11,12,12,13,13,15,15,16,16,18,18,19,19,20,20,21,21,22,22,23,23,24,24,25,25,26,26,28,28,30,30,32,32,33,33,34,34,35,35,38,38,39,39,40,40,41,41,42,42,43,43,45,45,46,46,47,47],"right_children":[2,4,6,8,10,12,14,-1,16,18,20,22,24,26,-1,28,30,-1,32,34,36,38,40,42,44,46,48,-1,50,-1,52,-1,54,56,58,60,-1,-1,62,64,66,68,70,72,-1,74,76,78,-1,-1,-1,-1,-1,-1,-1,-1,-1,-1,-1,-1,-1,-1,-1,-1,-1,-1,-1,-1,-1,-1,-1,-1,-1,-1,-1,-1,-1,-1,-1],"split_conditions":[1E0,1E0,1E0,1E0,1E0,1E0,1E0,-7.66058E-2,1E0,1E0,1E0,1E0,1E0,1E0,7.448352E-2,5.6E1,1E0,-7.16804E-2,1E0,1E0,1E0,1E0,1E0,1E0,1E0,1E0,1E0,-7.623127E-2,1E0,-6.5812804E-2,1E0,-6.25641E-2,1E0,1E0,2E1,1E0,7.338244E-2,-7.479263E-2,1E0,1E0,1E0,1E0,1E0,1E0,7.430669E-2,1E0,1E0,1E0,7.400827E-2,-5.8425277E-2,5.731501E-4,-3.0411383E-2,5.0923415E-2,-6.3927993E-3,5.957825E-2,-6.711709E-2,-3.4179492E-4,-9.033189E-3,4.9236875E-2,1.4488553E-2,6.0951192E-2,-6.5284885E-2,-7.8571326E-4,-7.215213E-2,1.807289E-2,-1.2317493E-2,5.594904E-2,-6.913435E-2,-3.3782762E-3,-1.8583074E-2,6.6228665E-2,1.4368966E-2,6.411269E-2,-5.208805E-2,2.7248964E-3,1.2549929E-3,6.901944E-2,-7.7409646E-3,6.1127324E-2],"split_indices":[4,2,2,9,9,0,9,0,1,0,6,6,9,6,0,10,3,0,8,0,12,3,9,6,1,8,0,0,0,0,12,0,1,7,10,7,0,0,1,12,8,11,7,8,0,5,3,1,0,0,0,0,0,0,0,0,0,0,0,0,0,0,0,0,0,0,0,0,0,0,0,0,0,0,0,0,0,0,0],"split_type":[0,0,0,0,0,0,0,0,0,0,0,0,0,0,0,0,0,0,0,0,0,0,0,0,0,0,0,0,0,0,0,0,0,0,0,0,0,0,0,0,0,0,0,0,0,0,0,0,0,0,0,0,0,0,0,0,0,0,0,0,0,0,0,0,0,0,0,0,0,0,0,0,0,0,0,0,0,0,0],"sum_hessian":[9.22855E2,4.1639844E2,5.0645654E2,3.22111E2,9.428745E1,1.4089899E2,3.6555756E2,2.5085445E2,7.1256546E1,4.9225986E1,4.5061462E1,7.129124E1,6.960775E1,7.453756E1,2.9102E2,4.8130104E1,2.3126442E1,3.6002636E1,1.32233515E1,1.5371689E1,2.9689774E1,4.9041313E1,2.2249924E1,2.2095493E1,4.7512257E1,2.0961878E1,5.3575687E1,4.3656452E1,4.473653E0,1.3167633E1,9.95881E0,7.3539367E0,5.869415E0,7.372713E0,7.9989753E0,1.2933317E1,1.6756456E1,3.3524124E1,1.5517192E1,1.0649642E1,1.1600282E1,1.2090452E1,1.0005041E1,1.6408682E1,3.1103577E1,1.0374571E1,1.0587306E1,1.3457609E1,4.0118076E1,2.7938416E0,1.6798115E0,6.744876E0,3.2139337E0,3.2476032E0,2.6218116E0,5.372766E0,1.9999474E0,2.225081E0,5.7738943E0,4.908139E0,8.025178E0,1.228237E1,3.2348225E0,8.665843E0,1.9837992E0,3.7426672E0,7.857615E0,7.398438E0,4.6920137E0,4.2190843E0,5.7859564E0,5.074906E0,1.13337755E1,4.630447E0,5.7441244E0,3.8793888E0,6.7079177E0,3.8097634E0,9.647846E0],"tree_param":{"num_deleted":"0","num_feature":"13","num_nodes":"79","size_leaf_vector":"1"}},{"base_weights":[-3.4555705E-4,-1.1654717E0,9.570407E-1,-1.4372078E0,-2.3724778E-1,-8.769325E-2,1.3609517E0,-7.458312E-2,-1.2283063E0,-1.1522359E0,7.621907E-1,-9.807192E-1,8.2637703E-1,1.0169957E0,7.2678946E-2,-6.96975E-2,-6.5853786E-1,-7.2147734E-2,-5.4628974E-1,-1.474892E-1,1.225562E0,-1.3828766E0,-2.4230927E-1,-2.0624441E-1,1.3060259E0,1.8491116E-1,1.3184667E0,-6.3618094E-2,5.122661E-2,-1.1260532E0,5.323642E-1,-9.9289894E-1,6.5149933E-1,8.8077927E-1,7.1438536E-2,-7.4484125E-2,-9.69594E-1,-9.960707E-1,6.68331E-1,-9.0219474E-1,6.0440254E-1,9.288968E-1,7.1345784E-2,-7.036684E-1,8.0891937E-1,8.1495047E-1,7.1500175E-2,-2.8461725E-2,4.272933E-2,-6.440816E-2,-2.532475E-2,-1.766113E-2,4.8411727E-2,-6.530802E-2,-3.3040586E-4,-5.8299705E-4,5.2812494E-2,3.921817E-3,5.460403E-2,-6.517778E-2,-6.671754E-3,-6.942181E-2,-8.700999E-3,-1.1837055E-2,5.4098316E-2,-6.945195E-2,-1.0405901E-2,-4.7652205E-3,4.9681682E-2,-5.311825E-4,5.8240365E-2,-6.1470475E-2,2.732692E-3,8.146927E-3,5.8950003E-2,-4.486923E-3,6.355003E-2],"categories":[],"categories_nodes":[],"categories_segments":[],"categories_sizes":[],"default_left":[0,0,0,0,0,0,0,0,0,0,0,0,0,0,0,0,0,0,0,0,0,0,0,0,0,0,0,0,0,0,0,0,0,0,0,0,0,0,0,0,0,0,0,0,0,0,0,0,0,0,0,0,0,0,0,0,0,0,0,0,0,0,0,0,0,0,0,0,0,0,0,0,0,0,0,0,0],"id":8,"left_children":[1,3,5,7,9,11,13,-1,15,17,19,21,23,25,-1,-1,27,-1,29,31,33,35,37,39,41,43,45,-1,47,49,51,53,55,57,-1,-1,59,61,63,65,67,69,-1,71,73,75,-1,-1,-1,-1,-1,-1,-1,-1,-1,-1,-1,-1,-1,-1,-1,-1,-1,-1,-1,-1,-1,-1,-1,-1,-1,-1,-1,-1,-1,-1,-1],"loss_changes":[1.0106907E3,1.0274396E2,2.0999997E2,1.7619019E0,8.6607956E1,1.1477782E2,9.951538E0,0E0,5.7821655E0,7.903389E0,1.9321081E1,2.0772179E1,3.4711258E1,1.9684753E1,0E0,0E0,7.8574486E0,0E0,1.160979E1,1.1600778E1,8.568573E-1,5.774536E-1,1.870054E1,1.3475554E1,8.455353E-1,1.2929408E1,2.1005173E0,0E0,5.1001067E0,5.2992344E-1,2.9799078E0,2.5482597E0,2.4122136E0,2.2544403E0,0E0,0E0,3.2525835E0,4.5246058E0,4.93478E0,4.0135336E0,3.14117E0,3.2094088E0,0E0,3.946756E0,3.0497313E0,5.4243107E0,0E0,0E0,0E0,0E0,0E0,0E0,0E0,0E0,0E0,0E0,0E0,0E0,0E0,0E0,0E0,0E0,0E0,0E0,0E0,0E0,0E0,0E0,0E0,0E0,0E0,0E0,0E0,0E0,0E0,0E0,0E0],"parents":[2147483647,0,0,1,1,2,2,3,3,4,4,5,5,6,6,8,8,9,9,10,10,11,11,12,12,13,13,16,16,18,18,19,19,20,20,21,21,22,22,23,23,24,24,25,25,26,26,28,28,29,29,30,30,31,31,32,32,33,33,36,36,37,37,38,38,39,39,40,40,41,41,43,43,44,44,45,45],"right_children":[2,4,6,8,10,12,14,-1,16,18,20,22,24,26,-1,-1,28,-1,30,32,34,36,38,40,42,44,46,-1,48,50,52,54,56,58,-1,-1,60,62,64,66,68,70,-1,72,74,76,-1,-1,-1,-1,-1,-1,-1,-1,-1,-1,-1,-1,-1,-1,-1,-1,-1,-1,-1,-1,-1,-1,-1,-1,-1,-1,-1,-1,-1,-1,-1],"split_conditions":[1E0,1E0,1E0,1E0,1E0,1E0,1E0,-7.458312E-2,1E0,1E0,1E0,1E0,1E0,1E0,7.2678946E-2,-6.96975E-2,1E0,-7.2147734E-2,1E0,1E0,1E0,1E0,1E0,1E0,1E0,1E0,1E0,-6.3618094E-2,1E0,1E0,1E0,1E0,1E0,1E0,7.1438536E-2,-7.4484125E-2,1E0,1E0,1E0,1E0,1E0,1E0,7.1345784E-2,1E0,1E0,1E0,7.1500175E-2,-2.8461725E-2,4.272933E-2,-6.440816E-2,-2.532475E-2,-1.766113E-2,4.8411727E-2,-6.530802E-2,-3.3040586E-4,-5.8299705E-4,5.2812494E-2,3.921817E-3,5.460403E-2,-6.517778E-2,-6.671754E-3,-6.942181E-2,-8.700999E-3,-1.1837055E-2,5.4098316E-2,-6.945195E-2,-1.0405901E-2,-4.7652205E-3,4.9681682E-2,-5.311825E-4,5.8240365E-2,-6.1470475E-2,2.732692E-3,8.146927E-3,5.8950003E-2,-4.486923E-3,6.355003E-2],"split_indices":[4,2,2,9,9,0,6,0,0,8,6,9,9,0,0,0,3,0,0,0,12,1,6,1,3,1,9,0,6,12,3,7,8,0,0,0,12,7,8,3,8,7,0,8,3,7,0,0,0,0,0,0,0,0,0,0,0,0,0,0,0,0,0,0,0,0,0,0,0,0,0,0,0,0,0,0,0],"split_type":[0,0,0,0,0,0,0,0,0,0,0,0,0,0,0,0,0,0,0,0,0,0,0,0,0,0,0,0,0,0,0,0,0,0,0,0,0,0,0,0,0,0,0,0,0,0,0,0,0,0,0,0,0,0,0,0,0,0,0,0,0,0,0,0,0,0,0,0,0,0,0,0,0,0,0,0,0],"sum_hessian":[9.040625E2,4.076909E2,4.963716E2,3.1494333E2,9.274756E1,1.3861655E2,3.5775507E2,2.4495117E2,6.999216E1,4.8339634E1,4.4407925E1,7.007851E1,6.853803E1,7.84443E1,2.793108E2,5.3106464E1,1.6885693E1,3.173338E1,1.6606255E1,1.5216649E1,2.9191275E1,4.480419E1,2.5274317E1,2.1919094E1,4.661894E1,2.1291473E1,5.7152824E1,8.629771E0,8.25592E0,1.0772321E1,5.833935E0,7.2756205E0,7.9410286E0,1.2802951E1,1.6388323E1,3.353352E1,1.1270672E1,1.3776952E1,1.1497365E1,1.1733129E1,1.01859665E1,1.3424267E1,3.319467E1,8.730993E0,1.256048E1,1.1870733E1,4.528209E1,4.822657E0,3.433263E0,7.6828947E0,3.0894256E0,1.9868122E0,3.8471227E0,5.2756696E0,1.9999509E0,3.377838E0,4.563191E0,2.9547036E0,9.848248E0,7.6544905E0,3.6161814E0,8.859374E0,4.9175777E0,3.7404883E0,7.756877E0,6.307559E0,5.4255695E0,3.9108026E0,6.2751637E0,2.8859313E0,1.0538336E1,4.789343E0,3.9416502E0,5.0995035E0,7.460976E0,4.2476635E0,7.62307E0],"tree_param":{"num_deleted":"0","num_feature":"13","num_nodes":"77","size_leaf_vector":"1"}},{"base_weights":[-4.3523993E-4,-1.1337984E0,9.299627E-1,-1.4002503E0,-2.296443E-1,-8.542708E-2,1.3250905E0,-7.275422E-2,-1.191454E0,-1.1191205E0,7.3791665E-1,-9.513245E-1,7.994866E-1,9.675692E-1,7.069299E-2,-1.3995482E0,-7.220288E-1,-7.030439E-2,-5.280748E-1,-1.4236166E-1,1.1899151E0,-1.3071371E0,-1.6055569E-1,-1.989801E-1,1.2691461E0,2.3413773E-1,1.2784076E0,-7.240572E-2,-7.4971676E-1,-1.2402428E0,-2.5996247E-3,-1.0919534E0,5.127205E-1,-9.635873E-1,6.279309E-1,8.4978604E-1,6.9665164E-2,-7.069E-2,-9.160578E-1,-9.875519E-1,6.919928E-1,-8.695917E-1,6.12296E-1,8.8750035E-1,6.950309E-2,-7.324411E-1,8.5381055E-1,7.87642E-1,7.025582E-2,-5.5277795E-2,1.2403454E-3,-6.76977E-2,-3.2340266E-2,-4.1455775E-2,3.33164E-2,-6.284129E-2,-2.3700723E-2,-1.1265243E-2,5.2701425E-2,-6.363449E-2,-3.193904E-4,-1.7241424E-2,4.356051E-2,1.2666548E-2,5.7568777E-2,-6.4019725E-2,-5.328883E-3,-6.625454E-2,-5.808757E-3,-1.2686308E-3,6.2817514E-2,-6.581701E-2,-3.512437E-3,-1.7701415E-2,6.365725E-2,5.033018E-4,6.250742E-2,-5.789542E-2,-6.879438E-4,-1.1175757E-3,6.38137E-2,-4.305397E-3,6.1761856E-2],"categories":[],"categories_nodes":[],"categories_segments":[],"categories_sizes":[],"default_left":[0,0,0,0,0,0,0,0,0,0,0,0,0,0,0,0,0,0,0,0,0,0,0,0,0,0,0,0,0,0,0,0,0,0,0,0,0,0,0,0,0,0,0,0,0,0,0,0,0,0,0,0,0,0,0,0,0,0,0,0,0,0,0,0,0,0,0,0,0,0,0,0,0,0,0,0,0,0,0,0,0,0,0],"id":9,"left_children":[1,3,5,7,9,11,13,-1,15,17,19,21,23,25,-1,27,29,-1,31,33,35,37,39,41,43,45,47,-1,49,51,53,55,57,59,61,63,-1,-1,65,67,69,71,73,75,-1,77,79,81,-1,-1,-1,-1,-1,-1,-1,-1,-1,-1,-1,-1,-1,-1,-1,-1,-1,-1,-1,-1,-1,-1,-1,-1,-1,-1,-1,-1,-1,-1,-1,-1,-1,-1,-1],"loss_changes":[9.345226E2,9.593323E1,1.9538171E2,1.7972412E0,8.0122856E1,1.0594963E2,9.753357E0,0E0,5.7947617E0,7.4673347E0,1.7968801E1,1.9441132E1,3.234544E1,1.6313148E1,0E0,4.0402222E-1,8.744174E0,0E0,1.0784346E1,1.077089E1,8.68145E-1,7.082825E-1,1.6768198E1,1.2913859E1,9.2043304E-1,1.4350201E1,2.0618286E0,0E0,1.5035541E0,4.4462204E-2,6.538077E0,5.880289E-1,2.9550395E0,2.4099073E0,2.4060917E0,2.1663132E0,0E0,0E0,3.7366152E0,3.373289E0,4.817713E0,4.504261E0,7.402213E0,4.441249E0,0E0,2.8858185E0,5.3677216E0,5.085535E0,0E0,0E0,0E0,0E0,0E0,0E0,0E0,0E0,0E0,0E0,0E0,0E0,0E0,0E0,0E0,0E0,0E0,0E0,0E0,0E0,0E0,0E0,0E0,0E0,0E0,0E0,0E0,0E0,0E0,0E0,0E0,0E0,0E0,0E0,0E0],"parents":[2147483647,0,0,1,1,2,2,3,3,4,4,5,5,6,6,8,8,9,9,10,10,11,11,12,12,13,13,15,15,16,16,18,18,19,19,20,20,21,21,22,22,23,23,24,24,25,25,26,26,28,28,29,29,30,30,31,31,32,32,33,33,34,34,35,35,38,38,39,39,40,40,41,41,42,42,43,43,45,45,46,46,47,47],"right_children":[2,4,6,8,10,12,14,-1,16,18,20,22,24,26,-1,28,30,-1,32,34,36,38,40,42,44,46,48,-1,50,52,54,56,58,60,62,64,-1,-1,66,68,70,72,74,76,-1,78,80,82,-1,-1,-1,-1,-1,-1,-1,-1,-1,-1,-1,-1,-1,-1,-1,-1,-1,-1,-1,-1,-1,-1,-1,-1,-1,-1,-1,-1,-1,-1,-1,-1,-1,-1,-1],"split_conditions":[1E0,1E0,1E0,1E0,1E0,1E0,1E0,-7.275422E-2,1E0,1E0,1E0,1E0,1E0,1E0,7.069299E-2,5.6E1,1E0,-7.030439E-2,1E0,1E0,1E0,1E0,1E0,1E0,1E0,1E0,1E0,-7.240572E-2,1E0,1E0,1E0,1E0,1E0,1E0,1.2E1,1E0,6.9665164E-2,-7.069E-2,1E0,1E0,1E0,1E0,1E0,1E0,6.950309E-2,1E0,1E0,1E0,7.025582E-2,-5.5277795E-2,1.2403454E-3,-6.76977E-2,-3.2340266E-2,-4.1455775E-2,3.33164E-2,-6.284129E-2,-2.3700723E-2,-1.1265243E-2,5.2701425E-2,-6.363449E-2,-3.193904E-4,-1.7241424E-2,4.356051E-2,1.2666548E-2,5.7568777E-2,-6.4019725E-2,-5.328883E-3,-6.625454E-2,-5.808757E-3,-1.2686308E-3,6.2817514E-2,-6.581701E-2,-3.512437E-3,-1.7701415E-2,6.365725E-2,5.033018E-4,6.250742E-2,-5.789542E-2,-6.879438E-4,-1.1175757E-3,6.38137E-2,-4.305397E-3,6.1761856E-2],"split_indices":[4,2,2,9,9,0,9,0,1,8,6,8,9,0,0,10,3,0,0,0,12,1,6,6,6,1,6,0,0,12,7,6,12,7,10,7,0,0,3,3,12,11,7,8,0,7,8,7,0,0,0,0,0,0,0,0,0,0,0,0,0,0,0,0,0,0,0,0,0,0,0,0,0,0,0,0,0,0,0,0,0,0,0],"split_type":[0,0,0,0,0,0,0,0,0,0,0,0,0,0,0,0,0,0,0,0,0,0,0,0,0,0,0,0,0,0,0,0,0,0,0,0,0,0,0,0,0,0,0,0,0,0,0,0,0,0,0,0,0,0,0,0,0,0,0,0,0,0,0,0,0,0,0,0,0,0,0,0,0,0,0,0,0,0,0,0,0,0,0],"sum_hessian":[8.842414E2,3.9854077E2,4.857006E2,3.074016E2,9.1139175E1,1.3627873E2,3.4942188E2,2.3873593E2,6.866568E1,4.7404087E1,4.3735092E1,6.884152E1,6.743721E1,7.186857E1,2.775533E2,4.620278E1,2.2462896E1,3.0982395E1,1.642169E1,1.5070314E1,2.8664776E1,4.7027935E1,2.1813585E1,2.1757807E1,4.56794E1,2.1914343E1,4.9954224E1,4.1846844E1,4.3559394E0,1.2636637E1,9.826259E0,1.06192665E1,5.8024235E0,7.172558E0,7.8977566E0,1.2664273E1,1.6000504E1,3.489545E1,1.2132486E1,1.0992346E1,1.082124E1,1.1872204E1,9.885603E0,1.2996967E1,3.2682434E1,8.489797E0,1.3424546E1,1.1731646E1,3.822258E1,2.691831E0,1.6641083E0,9.529167E0,3.1074696E0,4.2882714E0,5.537987E0,7.566539E0,3.052728E0,2.7021112E0,3.1003122E0,5.1726036E0,1.9999541E0,1.4965076E0,6.401249E0,4.8709526E0,7.793321E0,7.9655466E0,4.1669393E0,7.547889E0,3.444456E0,5.1852336E0,5.6360064E0,7.2008886E0,4.671315E0,4.203431E0,5.6821723E0,4.101372E0,8.895595E0,4.9488635E0,3.5409324E0,4.675322E0,8.749225E0,4.247577E0,7.484069E0],"tree_param":{"num_deleted":"0","num_feature":"13","num_nodes":"83","size_leaf_vector":"1"}},{"base_weights":[-6.122803E-4,-1.1049265E0,9.0477467E-1,-1.3667613E0,-2.225526E-1,-8.296526E-2,1.2917048E0,-7.109381E-2,-1.1585228E0,-1.0879897E0,7.1517426E-1,-9.228891E-1,7.750299E-1,9.500563E-1,6.924558E-2,-6.627627E-2,-5.9160477E-1,-6.8617724E-2,-5.100011E-1,-1.3922273E-1,1.1570156E0,-1.316808E0,-2.1050403E-1,-1.918226E-1,1.2353389E0,1.444249E-1,1.2495621E0,-1.1075081E0,2.1682456E-1,-1.0597535E0,4.954131E-1,-9.3599963E-1,6.041857E-1,8.212923E-1,6.804059E-2,-7.1047865E-2,-9.2026067E-1,-9.286773E-1,6.424944E-1,-8.562175E-1,5.7526344E-1,8.961408E-1,6.906794E-2,-6.926217E-1,7.4018586E-1,7.618384E-1,6.803044E-2,-6.5517664E-2,-1.2599818E-2,-3.5405114E-2,3.6246616E-2,-6.529082E-2,-2.8392171E-2,-7.15744E-3,5.6084197E-2,-6.208035E-2,-3.087406E-4,-1.7261821E-3,5.0067354E-2,2.9045802E-3,5.1402587E-2,-6.215006E-2,-6.3241846E-3,-6.6096716E-2,-6.6377344E-3,-9.546784E-3,5.13434E-2,-6.6408955E-2,-9.930232E-3,-4.442278E-3,4.7364052E-2,1.0202547E-2,5.863994E-2,-5.9396397E-2,1.1590885E-3,9.723985E-3,6.0300052E-2,-4.1312543E-3,6.009489E-2],"categories":[],"categories_nodes":[],"categories_segments":[],"categories_sizes":[],"default_left":[0,0,0,0,0,0,0,0,0,0,0,0,0,0,0,0,0,0,0,0,0,0,0,0,0,0,0,0,0,0,0,0,0,0,0,0,0,0,0,0,0,0,0,0,0,0,0,0,0,0,0,0,0,0,0,0,0,0,0,0,0,0,0,0,0,0,0,0,0,0,0,0,0,0,0,0,0,0,0],"id":10,"left_children":[1,3,5,7,9,11,13,-1,15,17,19,21,23,25,-1,-1,27,-1,29,31,33,35,37,39,41,43,45,47,49,51,53,55,57,59,-1,-1,61,63,65,67,69,71,-1,73,75,77,-1,-1,-1,-1,-1,-1,-1,-1,-1,-1,-1,-1,-1,-1,-1,-1,-1,-1,-1,-1,-1,-1,-1,-1,-1,-1,-1,-1,-1,-1,-1,-1,-1],"loss_changes":[8.6563E2,8.980899E1,1.8192728E2,1.8025513E0,7.418141E1,9.789206E1,9.57135E0,0E0,5.682884E0,7.0963554E0,1.6777016E1,1.8972637E1,3.0166157E1,1.8270027E1,0E0,0E0,7.475996E0,0E0,1.0050211E1,9.981008E0,8.746834E-1,5.0878906E-1,1.628871E1,1.1988016E1,1.0252686E0,1.1410719E1,1.9753647E0,1.5360804E0,4.082592E0,6.455927E-1,2.869307E0,2.2840137E0,2.274723E0,2.0739775E0,0E0,0E0,2.9135313E0,4.305352E0,4.13627E0,3.6123276E0,2.8183606E0,2.9386759E0,0E0,3.4323478E0,3.133687E0,4.7764335E0,0E0,0E0,0E0,0E0,0E0,0E0,0E0,0E0,0E0,0E0,0E0,0E0,0E0,0E0,0E0,0E0,0E0,0E0,0E0,0E0,0E0,0E0,0E0,0E0,0E0,0E0,0E0,0E0,0E0,0E0,0E0,0E0,0E0],"parents":[2147483647,0,0,1,1,2,2,3,3,4,4,5,5,6,6,8,8,9,9,10,10,11,11,12,12,13,13,16,16,18,18,19,19,20,20,21,21,22,22,23,23,24,24,25,25,26,26,27,27,28,28,29,29,30,30,31,31,32,32,33,33,36,36,37,37,38,38,39,39,40,40,41,41,43,43,44,44,45,45],"right_children":[2,4,6,8,10,12,14,-1,16,18,20,22,24,26,-1,-1,28,-1,30,32,34,36,38,40,42,44,46,48,50,52,54,56,58,60,-1,-1,62,64,66,68,70,72,-1,74,76,78,-1,-1,-1,-1,-1,-1,-1,-1,-1,-1,-1,-1,-1,-1,-1,-1,-1,-1,-1,-1,-1,-1,-1,-1,-1,-1,-1,-1,-1,-1,-1,-1,-1],"split_conditions":[1E0,1E0,1E0,1E0,1E0,1E0,1E0,-7.109381E-2,1E0,1E0,1E0,1E0,1E0,1E0,6.924558E-2,-6.627627E-2,1E0,-6.8617724E-2,1E0,1E0,1E0,1E0,1E0,1E0,1E0,1E0,1E0,4.4E1,1E0,1E0,1E0,1E0,1E0,1E0,6.804059E-2,-7.1047865E-2,1E0,1E0,1E0,1E0,1E0,1E0,6.906794E-2,1E0,1E0,1E0,6.803044E-2,-6.5517664E-2,-1.2599818E-2,-3.5405114E-2,3.6246616E-2,-6.529082E-2,-2.8392171E-2,-7.15744E-3,5.6084197E-2,-6.208035E-2,-3.087406E-4,-1.7261821E-3,5.0067354E-2,2.9045802E-3,5.1402587E-2,-6.215006E-2,-6.3241846E-3,-6.6096716E-2,-6.6377344E-3,-9.546784E-3,5.13434E-2,-6.6408955E-2,-9.930232E-3,-4.442278E-3,4.7364052E-2,1.0202547E-2,5.863994E-2,-5.9396397E-2,1.1590885E-3,9.723985E-3,6.0300052E-2,-4.1312543E-3,6.009489E-2],"split_indices":[4,2,2,9,9,0,6,0,6,8,6,9,9,0,0,0,1,0,0,0,12,1,6,1,1,1,9,10,3,3,1,7,8,0,0,0,12,7,8,3,8,8,0,8,5,7,0,0,0,0,0,0,0,0,0,0,0,0,0,0,0,0,0,0,0,0,0,0,0,0,0,0,0,0,0,0,0,0,0],"split_type":[0,0,0,0,0,0,0,0,0,0,0,0,0,0,0,0,0,0,0,0,0,0,0,0,0,0,0,0,0,0,0,0,0,0,0,0,0,0,0,0,0,0,0,0,0,0,0,0,0,0,0,0,0,0,0,0,0,0,0,0,0,0,0,0,0,0,0,0,0,0,0,0,0,0,0,0,0,0,0],"sum_hessian":[8.637758E2,3.8903885E2,4.7473697E2,2.9958984E2,8.944899E1,1.3384592E2,3.4089105E2,2.3228297E2,6.7306885E1,4.643419E1,4.30148E1,6.7597015E1,6.62489E1,7.546561E1,2.6542545E2,5.095767E1,1.6349215E1,3.0201159E1,1.623303E1,1.4895667E1,2.8119135E1,4.298157E1,2.4615446E1,2.155569E1,4.469321E1,2.085381E1,5.4611797E1,9.754426E0,6.5947876E0,1.04597025E1,5.773328E0,7.064717E0,7.8309503E0,1.2521626E1,1.5597507E1,3.1995066E1,1.0986505E1,1.3315704E1,1.1299743E1,1.1488758E1,1.0066934E1,1.5597641E1,2.9095572E1,8.603406E0,1.2250403E1,1.1585976E1,4.3025826E1,7.455127E0,2.2992995E0,2.1987383E0,4.396049E0,5.8692217E0,4.590481E0,3.240578E0,2.5327501E0,5.0647597E0,1.9999571E0,3.3525312E0,4.4784193E0,2.9421992E0,9.579428E0,7.4084015E0,3.5781035E0,8.469923E0,4.845781E0,3.7253628E0,7.5743794E0,6.0948524E0,5.3939056E0,3.887795E0,6.179138E0,4.9506383E0,1.0647002E1,4.695052E0,3.9083536E0,6.294201E0,5.9562025E0,4.247454E0,7.3385215E0],"tree_param":{"num_deleted":"0","num_feature":"13","num_nodes":"79","size_leaf_vector":"1"}},{"base_weights":[-6.990111E-4,-1.0779994E0,8.8145113E-1,-1.3358055E0,-2.1576916E-1,-8.0875315E-2,1.2611692E0,-6.958076E-2,-1.1267262E0,-1.0590568E0,6.9361496E-1,-8.971932E-1,7.514588E-1,9.0612197E-1,6.752216E-2,-6.763976E-2,-6.9801027E-1,-6.706796E-2,-4.930431E-1,-1.3463867E-1,1.1257304E0,-1.2841377E0,-2.039658E-1,-1.8531615E-1,1.2036666E0,1.9258025E-1,1.2152536E0,-1.0793756E0,1.848488E-1,-1.029729E0,4.809298E-1,-9.0994865E-1,5.827724E-1,7.9323345E-1,6.654646E-2,-6.944679E-2,-8.912042E-1,-9.0121025E-1,6.199016E-1,-8.278821E-1,5.866087E-1,8.2474303E-1,6.646181E-2,-7.1913195E-1,7.8776145E-1,7.3738223E-1,6.711849E-2,-6.338965E-2,-9.265072E-3,-2.1886704E-2,5.5604156E-2,-5.982546E-2,-2.1236101E-2,-1.1218189E-2,5.0341446E-2,-6.063177E-2,-2.9844843E-4,-1.0372712E-2,4.4056546E-2,8.412539E-3,5.3035695E-2,-6.0471386E-2,-6.0806265E-3,-6.4573064E-2,-6.3718567E-3,-9.176271E-3,4.9754802E-2,-6.293761E-2,-3.633401E-3,-1.6879465E-2,6.1357588E-2,-3.6709835E-3,5.3169914E-2,-1.3657321E-2,-7.1528845E-2,-3.0771135E-3,6.0595702E-2,-3.964172E-3,5.8534633E-2],"categories":[],"categories_nodes":[],"categories_segments":[],"categories_sizes":[],"default_left":[0,0,0,0,0,0,0,0,0,0,0,0,0,0,0,0,0,0,0,0,0,0,0,0,0,0,0,0,0,0,0,0,0,0,0,0,0,0,0,0,0,0,0,0,0,0,0,0,0,0,0,0,0,0,0,0,0,0,0,0,0,0,0,0,0,0,0,0,0,0,0,0,0,0,0,0,0,0,0],"id":11,"left_children":[1,3,5,7,9,11,13,-1,15,17,19,21,23,25,-1,-1,27,-1,29,31,33,35,37,39,41,43,45,47,49,51,53,55,57,59,-1,-1,61,63,65,67,69,71,-1,73,75,77,-1,-1,-1,-1,-1,-1,-1,-1,-1,-1,-1,-1,-1,-1,-1,-1,-1,-1,-1,-1,-1,-1,-1,-1,-1,-1,-1,-1,-1,-1,-1,-1,-1],"loss_changes":[8.027182E2,8.42413E1,1.6979755E2,1.8456421E0,6.877293E1,9.05894E1,9.33313E0,0E0,5.5387573E0,6.7574997E0,1.5645912E1,1.7781631E1,2.8211052E1,1.51972275E1,0E0,0E0,8.670866E0,0E0,9.398173E0,9.2828245E0,8.9260864E-1,5.32074E-1,1.5083471E1,1.1584691E1,1.0302505E0,1.2686306E1,1.963768E0,2.7496395E0,5.361177E0,6.319723E-1,2.7230875E0,2.1689267E0,2.2534971E0,2.057126E0,0E0,0E0,2.7526178E0,4.0939245E0,3.8549938E0,4.0170784E0,6.7783647E0,3.0273085E0,0E0,2.5742068E0,5.114481E0,4.493261E0,0E0,0E0,0E0,0E0,0E0,0E0,0E0,0E0,0E0,0E0,0E0,0E0,0E0,0E0,0E0,0E0,0E0,0E0,0E0,0E0,0E0,0E0,0E0,0E0,0E0,0E0,0E0,0E0,0E0,0E0,0E0,0E0,0E0],"parents":[2147483647,0,0,1,1,2,2,3,3,4,4,5,5,6,6,8,8,9,9,10,10,11,11,12,12,13,13,16,16,18,18,19,19,20,20,21,21,22,22,23,23,24,24,25,25,26,26,27,27,28,28,29,29,30,30,31,31,32,32,33,33,36,36,37,37,38,38,39,39,40,40,41,41,43,43,44,44,45,45],"right_children":[2,4,6,8,10,12,14,-1,16,18,20,22,24,26,-1,-1,28,-1,30,32,34,36,38,40,42,44,46,48,50,52,54,56,58,60,-1,-1,62,64,66,68,70,72,-1,74,76,78,-1,-1,-1,-1,-1,-1,-1,-1,-1,-1,-1,-1,-1,-1,-1,-1,-1,-1,-1,-1,-1,-1,-1,-1,-1,-1,-1,-1,-1,-1,-1,-1,-1],"split_conditions":[1E0,1E0,1E0,1E0,1E0,1E0,1E0,-6.958076E-2,1E0,1E0,1E0,1E0,1E0,1E0,6.752216E-2,-6.763976E-2,1E0,-6.706796E-2,1E0,1E0,1E0,1E0,1E0,1E0,1E0,1E0,1E0,1E0,1E0,1E0,1E0,1E0,2E1,1E0,6.654646E-2,-6.944679E-2,1E0,1E0,1E0,1E0,1E0,1E0,6.646181E-2,4.1E1,1E0,1E0,6.711849E-2,-6.338965E-2,-9.265072E-3,-2.1886704E-2,5.5604156E-2,-5.982546E-2,-2.1236101E-2,-1.1218189E-2,5.0341446E-2,-6.063177E-2,-2.9844843E-4,-1.0372712E-2,4.4056546E-2,8.412539E-3,5.3035695E-2,-6.0471386E-2,-6.0806265E-3,-6.4573064E-2,-6.3718567E-3,-9.176271E-3,4.9754802E-2,-6.293761E-2,-3.633401E-3,-1.6879465E-2,6.1357588E-2,-3.6709835E-3,5.3169914E-2,-1.3657321E-2,-7.1528845E-2,-3.0771135E-3,6.0595702E-2,-3.964172E-3,5.8534633E-2],"split_indices":[4,2,2,9,9,0,9,0,3,8,6,9,9,0,0,0,8,0,0,0,12,1,6,6,3,1,6,12,6,12,12,7,10,8,0,0,12,7,8,11,7,7,0,10,8,7,0,0,0,0,0,0,0,0,0,0,0,0,0,0,0,0,0,0,0,0,0,0,0,0,0,0,0,0,0,0,0,0,0],"split_type":[0,0,0,0,0,0,0,0,0,0,0,0,0,0,0,0,0,0,0,0,0,0,0,0,0,0,0,0,0,0,0,0,0,0,0,0,0,0,0,0,0,0,0,0,0,0,0,0,0,0,0,0,0,0,0,0,0,0,0,0,0,0,0,0,0,0,0,0,0,0,0,0,0,0,0,0,0,0,0],"sum_hessian":[8.426639E2,3.792697E2,4.6339417E2,2.9154785E2,8.772186E1,1.3133542E2,3.3205875E2,2.2565707E2,6.589078E1,4.5429615E1,4.229225E1,6.626632E1,6.506911E1,6.895819E1,2.6310056E2,4.1730247E1,2.416053E1,2.9397575E1,1.603204E1,1.473585E1,2.75564E1,4.1981018E1,2.42853E1,2.1376543E1,4.3692566E1,2.133513E1,4.7623062E1,1.6716831E1,7.4436984E0,1.029949E1,5.732549E0,6.9531574E0,7.7826934E0,1.2373119E1,1.5183281E1,3.114078E1,1.0840238E1,1.3102602E1,1.1182697E1,1.1626182E1,9.750361E0,1.27588825E1,3.0933683E1,8.34453E0,1.29906E1,1.1435208E1,3.6187855E1,1.3461877E1,3.2549539E0,4.769306E0,2.6743925E0,7.3074036E0,2.9920862E0,2.6935487E0,3.0390003E0,4.9531975E0,1.99996E0,2.2165806E0,5.5661125E0,4.196586E0,8.176534E0,7.264764E0,3.5754738E0,8.26508E0,4.837521E0,3.7224462E0,7.4602513E0,6.9781876E0,4.647994E0,4.1850247E0,5.5653367E0,2.823855E0,9.935027E0,5.9798536E0,2.3646765E0,4.6115503E0,8.379049E0,4.2472987E0,7.187909E0],"tree_param":{"num_deleted":"0","num_feature":"13","num_nodes":"79","size_leaf_vector":"1"}},{"base_weights":[-8.0689613E-4,-1.0530056E0,8.594441E-1,-1.3073117E0,-2.0940895E-1,-7.899032E-2,1.2323395E0,-6.81973E-2,-1.0969249E0,-1.0318063E0,6.731408E-1,-8.730844E-1,7.2946644E-1,8.900822E-1,6.635593E-2,-1.2654283E0,-5.3737015E-1,-6.563837E-2,-4.7672334E-1,-1.3127515E-1,1.0960208E0,-1.2538362E0,-1.9776455E-1,-1.788639E-1,1.1735735E0,1.06543496E-1,1.1901209E0,-6.844451E-2,-9.629575E-1,-5.7120353E-2,1.1752446E-1,-1.0008028E0,4.6507895E-1,-7.922108E-1,6.8065673E-1,7.663194E-1,6.516723E-2,-6.798026E-2,-8.636632E-1,-8.751663E-1,5.9838027E-1,-8.001863E-1,5.6652844E-1,8.327759E-1,6.617764E-2,-6.8414193E-1,6.7773724E-1,7.14138E-1,6.5094076E-2,-5.9201326E-2,-9.55804E-3,-2.0924864E-2,4.6383236E-2,-6.255576E-2,-2.5726719E-2,-7.365086E-3,5.3980853E-2,-5.6606848E-2,-1.7113303E-3,-1.3547383E-3,5.5189222E-2,9.716364E-3,5.3438433E-2,-5.8898974E-2,-5.8464343E-3,-6.315835E-2,-6.1164494E-3,-8.820284E-3,4.824713E-2,-6.1190393E-2,-3.4840032E-3,-1.621871E-2,5.95583E-2,7.907314E-3,5.565344E-2,-5.7852723E-2,5.575191E-5,7.299243E-3,5.718564E-2,-3.8038758E-3,5.7068687E-2],"categories":[],"categories_nodes":[],"categories_segments":[],"categories_sizes":[],"default_left":[0,0,0,0,0,0,0,0,0,0,0,0,0,0,0,0,0,0,0,0,0,0,0,0,0,0,0,0,0,0,0,0,0,0,0,0,0,0,0,0,0,0,0,0,0,0,0,0,0,0,0,0,0,0,0,0,0,0,0,0,0,0,0,0,0,0,0,0,0,0,0,0,0,0,0,0,0,0,0,0,0],"id":12,"left_children":[1,3,5,7,9,11,13,-1,15,17,19,21,23,25,-1,27,29,-1,31,33,35,37,39,41,43,45,47,-1,49,-1,51,53,55,57,59,61,-1,-1,63,65,67,69,71,73,-1,75,77,79,-1,-1,-1,-1,-1,-1,-1,-1,-1,-1,-1,-1,-1,-1,-1,-1,-1,-1,-1,-1,-1,-1,-1,-1,-1,-1,-1,-1,-1,-1,-1,-1,-1],"loss_changes":[7.451215E2,7.916461E1,1.5858792E2,1.8916931E0,6.3810696E1,8.392322E1,9.334717E0,0E0,5.487587E0,6.455986E0,1.4618574E1,1.669743E1,2.6361721E1,1.7114979E1,0E0,2.3200226E-1,6.8216944E0,0E0,8.772548E0,8.886346E0,9.1492844E-1,5.571594E-1,1.3978051E1,1.0714429E1,1.1300201E0,1.0131388E1,1.8861847E0,0E0,2.503172E0,0E0,4.3014936E0,7.1104336E-1,2.6804023E0,2.2896419E0,2.2812684E0,2.0820022E0,0E0,0E0,2.6058273E0,3.901288E0,3.5960412E0,3.7823935E0,6.317377E0,2.8576355E0,0E0,3.0720448E0,3.0369701E0,4.232883E0,0E0,0E0,0E0,0E0,0E0,0E0,0E0,0E0,0E0,0E0,0E0,0E0,0E0,0E0,0E0,0E0,0E0,0E0,0E0,0E0,0E0,0E0,0E0,0E0,0E0,0E0,0E0,0E0,0E0,0E0,0E0,0E0,0E0],"parents":[2147483647,0,0,1,1,2,2,3,3,4,4,5,5,6,6,8,8,9,9,10,10,11,11,12,12,13,13,15,15,16,16,18,18,19,19,20,20,21,21,22,22,23,23,24,24,25,25,26,26,28,28,30,30,31,31,32,32,33,33,34,34,35,35,38,38,39,39,40,40,41,41,42,42,43,43,45,45,46,46,47,47],"right_children":[2,4,6,8,10,12,14,-1,16,18,20,22,24,26,-1,28,30,-1,32,34,36,38,40,42,44,46,48,-1,50,-1,52,54,56,58,60,62,-1,-1,64,66,68,70,72,74,-1,76,78,80,-1,-1,-1,-1,-1,-1,-1,-1,-1,-1,-1,-1,-1,-1,-1,-1,-1,-1,-1,-1,-1,-1,-1,-1,-1,-1,-1,-1,-1,-1,-1,-1,-1],"split_conditions":[1E0,1E0,1E0,1E0,1E0,1E0,1E0,-6.81973E-2,1E0,1E0,1E0,1E0,1E0,1E0,6.635593E-2,1E0,1E0,-6.563837E-2,1E0,1E0,1E0,1E0,1E0,1E0,1E0,1E0,1E0,-6.844451E-2,1E0,-5.7120353E-2,1E0,1E0,1E0,1E0,1E0,1E0,6.516723E-2,-6.798026E-2,1E0,1E0,1E0,1E0,1E0,1E0,6.617764E-2,1E0,1E0,1E0,6.5094076E-2,-5.9201326E-2,-9.55804E-3,-2.0924864E-2,4.6383236E-2,-6.255576E-2,-2.5726719E-2,-7.365086E-3,5.3980853E-2,-5.6606848E-2,-1.7113303E-3,-1.3547383E-3,5.5189222E-2,9.716364E-3,5.3438433E-2,-5.8898974E-2,-5.8464343E-3,-6.315835E-2,-6.1164494E-3,-8.820284E-3,4.824713E-2,-6.1190393E-2,-3.4840032E-3,-1.621871E-2,5.95583E-2,7.907314E-3,5.565344E-2,-5.7852723E-2,5.575191E-5,7.299243E-3,5.718564E-2,-3.8038758E-3,5.7068687E-2],"split_indices":[4,2,2,9,9,0,6,0,0,8,6,9,9,0,0,1,3,0,0,3,12,1,6,6,1,1,9,0,8,0,12,3,1,0,8,7,0,0,12,7,8,11,7,8,0,8,5,7,0,0,0,0,0,0,0,0,0,0,0,0,0,0,0,0,0,0,0,0,0,0,0,0,0,0,0,0,0,0,0,0,0],"split_type":[0,0,0,0,0,0,0,0,0,0,0,0,0,0,0,0,0,0,0,0,0,0,0,0,0,0,0,0,0,0,0,0,0,0,0,0,0,0,0,0,0,0,0,0,0,0,0,0,0,0,0,0,0,0,0,0,0,0,0,0,0,0,0,0,0,0,0,0,0,0,0,0,0,0,0,0,0,0,0,0,0],"sum_hessian":[8.211979E2,3.6928738E2,4.5191052E2,2.8332736E2,8.596001E1,1.2873135E2,3.2317914E2,2.1891432E2,6.441304E1,4.4408844E1,4.1551167E1,6.490222E1,6.3829136E1,7.234056E1,2.508386E2,4.8535618E1,1.5877426E1,2.857853E1,1.5830315E1,1.4554569E1,2.6996597E1,4.095484E1,2.3947378E1,2.1156034E1,4.2673103E1,2.0406067E1,5.193449E1,3.353804E1,1.4997577E1,7.8659263E0,8.0115E0,1.0130439E1,5.699876E0,8.036731E0,6.5178385E0,1.2235328E1,1.476127E1,3.0265709E1,1.0689134E1,1.288494E1,1.1062438E1,1.1498195E1,9.65784E0,1.5043157E1,2.7629946E1,8.475692E0,1.1930374E1,1.1280653E1,4.065384E1,1.1243063E1,3.7545142E0,5.112373E0,2.8991272E0,5.649436E0,4.4810033E0,3.2357702E0,2.4641054E0,5.207677E0,2.8290536E0,2.7889018E0,3.7289364E0,4.800027E0,7.435301E0,7.116247E0,3.5728867E0,8.055426E0,4.829515E0,3.7194865E0,7.342952E0,6.8503695E0,4.6478252E0,4.1786504E0,5.47919E0,4.8746676E0,1.01684885E1,4.607469E0,3.8682232E0,6.1852765E0,5.745097E0,4.247116E0,7.033537E0],"tree_param":{"num_deleted":"0","num_feature":"13","num_nodes":"81","size_leaf_vector":"1"}},{"base_weights":[-8.993542E-4,-1.0296466E0,8.3909315E-1,-1.2810454E0,-2.0302051E-1,-7.708845E-2,1.2059133E0,-6.6928335E-2,-1.0693245E0,-1.0062698E0,6.538573E-1,-8.5037345E-1,7.0893353E-1,8.769994E-1,6.529163E-2,-1.2793916E0,-6.12921E-1,-6.4314686E-2,-4.613264E-1,-1.2625296E-1,1.0685045E0,-1.2256147E0,-1.9186722E-1,-1.7274612E-1,1.1456343E0,1.0249053E-1,1.1535354E0,-6.650459E-2,-6.3815635E-1,-1.0045743E0,2.399467E-1,-9.7371763E-1,4.518724E-1,-7.675237E-1,6.5804523E-1,7.4155104E-1,6.3889585E-2,-6.663232E-2,-8.3748204E-1,-8.610998E-1,6.035654E-1,-8.031625E-1,5.451477E-1,7.53868E-1,6.377745E-2,-6.609998E-1,6.5520716E-1,6.4207E-1,6.3967526E-2,-5.005895E-2,4.5266096E-3,-6.1368145E-2,-1.2170683E-2,-3.3425402E-2,3.6761235E-2,-5.7408728E-2,-1.822876E-2,-1.796485E-2,4.3489795E-2,-5.5116173E-2,-1.6477172E-3,-1.3048445E-3,5.3557243E-2,6.681688E-3,5.04075E-2,-5.7420593E-2,-5.621243E-3,-6.1968394E-2,-5.2086934E-3,-1.3088323E-2,5.7468515E-2,-6.0604908E-2,-6.0447394E-3,-4.0054047E-3,4.490604E-2,-4.099217E-3,5.6482583E-2,-5.6176633E-2,5.3531207E-5,1.9489726E-3,5.1733118E-2,-1.3996251E-2,5.147601E-2],"categories":[],"categories_nodes":[],"categories_segments":[],"categories_sizes":[],"default_left":[0,0,0,0,0,0,0,0,0,0,0,0,0,0,0,0,0,0,0,0,0,0,0,0,0,0,0,0,0,0,0,0,0,0,0,0,0,0,0,0,0,0,0,0,0,0,0,0,0,0,0,0,0,0,0,0,0,0,0,0,0,0,0,0,0,0,0,0,0,0,0,0,0,0,0,0,0,0,0,0,0,0,0],"id":13,"left_children":[1,3,5,7,9,11,13,-1,15,17,19,21,23,25,-1,27,29,-1,31,33,35,37,39,41,43,45,47,-1,49,51,53,55,57,59,61,63,-1,-1,65,67,69,71,73,75,-1,77,79,81,-1,-1,-1,-1,-1,-1,-1,-1,-1,-1,-1,-1,-1,-1,-1,-1,-1,-1,-1,-1,-1,-1,-1,-1,-1,-1,-1,-1,-1,-1,-1,-1,-1,-1,-1],"loss_changes":[6.9256903E2,7.4604706E1,1.4837006E2,1.9305115E0,5.9299942E1,7.784666E1,9.211151E0,0E0,5.346817E0,6.1773376E0,1.3665665E1,1.5706528E1,2.4673536E1,1.6259857E1,0E0,5.450058E-1,7.6148834E0,0E0,8.216742E0,8.256317E0,9.2861176E-1,5.834961E-1,1.3617241E1,1.0360613E1,1.2087631E0,9.386504E0,2.7983856E0,0E0,1.4301255E0,2.2993603E0,3.980499E0,7.464695E-1,2.5691648E0,2.1624565E0,2.1394272E0,1.9857788E0,0E0,0E0,2.47124E0,3.8147144E0,5.8882065E0,3.2233272E0,2.4658787E0,4.1961517E0,0E0,2.8820415E0,2.9549198E0,4.9725327E0,0E0,0E0,0E0,0E0,0E0,0E0,0E0,0E0,0E0,0E0,0E0,0E0,0E0,0E0,0E0,0E0,0E0,0E0,0E0,0E0,0E0,0E0,0E0,0E0,0E0,0E0,0E0,0E0,0E0,0E0,0E0,0E0,0E0,0E0,0E0],"parents":[2147483647,0,0,1,1,2,2,3,3,4,4,5,5,6,6,8,8,9,9,10,10,11,11,12,12,13,13,15,15,16,16,18,18,19,19,20,20,21,21,22,22,23,23,24,24,25,25,26,26,28,28,29,29,30,30,31,31,32,32,33,33,34,34,35,35,38,38,39,39,40,40,41,41,42,42,43,43,45,45,46,46,47,47],"right_children":[2,4,6,8,10,12,14,-1,16,18,20,22,24,26,-1,28,30,-1,32,34,36,38,40,42,44,46,48,-1,50,52,54,56,58,60,62,64,-1,-1,66,68,70,72,74,76,-1,78,80,82,-1,-1,-1,-1,-1,-1,-1,-1,-1,-1,-1,-1,-1,-1,-1,-1,-1,-1,-1,-1,-1,-1,-1,-1,-1,-1,-1,-1,-1,-1,-1,-1,-1,-1,-1],"split_conditions":[1E0,1E0,1E0,1E0,1E0,1E0,1E0,-6.6928335E-2,1E0,1E0,1E0,1E0,1E0,1E0,6.529163E-2,5.6E1,1E0,-6.4314686E-2,1E0,1E0,1E0,1E0,1E0,1E0,1E0,1E0,1E0,-6.650459E-2,1E0,1E0,1E0,1E0,1E0,1E0,1E0,1E0,6.3889585E-2,-6.663232E-2,1E0,1E0,1E0,1E0,1E0,1E0,6.377745E-2,1E0,1E0,1E0,6.3967526E-2,-5.005895E-2,4.5266096E-3,-6.1368145E-2,-1.2170683E-2,-3.3425402E-2,3.6761235E-2,-5.7408728E-2,-1.822876E-2,-1.796485E-2,4.3489795E-2,-5.5116173E-2,-1.6477172E-3,-1.3048445E-3,5.3557243E-2,6.681688E-3,5.04075E-2,-5.7420593E-2,-5.621243E-3,-6.1968394E-2,-5.2086934E-3,-1.3088323E-2,5.7468515E-2,-6.0604908E-2,-6.0447394E-3,-4.0054047E-3,4.490604E-2,-4.099217E-3,5.6482583E-2,-5.6176633E-2,5.3531207E-5,1.9489726E-3,5.1733118E-2,-1.3996251E-2,5.147601E-2],"split_indices":[4,2,2,9,9,0,0,0,1,8,6,9,9,6,0,10,8,0,0,3,12,1,3,1,6,1,9,0,3,12,3,6,3,0,8,1,0,0,12,12,1,7,8,8,0,8,3,1,0,0,0,0,0,0,0,0,0,0,0,0,0,0,0,0,0,0,0,0,0,0,0,0,0,0,0,0,0,0,0,0,0,0,0],"split_type":[0,0,0,0,0,0,0,0,0,0,0,0,0,0,0,0,0,0,0,0,0,0,0,0,0,0,0,0,0,0,0,0,0,0,0,0,0,0,0,0,0,0,0,0,0,0,0,0,0,0,0,0,0,0,0,0,0,0,0,0,0,0,0,0,0,0,0,0,0,0,0,0,0,0,0,0,0,0,0,0,0,0,0],"sum_hessian":[7.994549E2,3.5925092E2,4.4020395E2,2.7505093E2,8.419997E1,1.2608355E2,3.1412042E2,2.1210344E2,6.2947502E1,4.3369987E1,4.082998E1,6.3515453E1,6.2568096E1,7.546892E1,2.386515E2,4.1872025E1,2.1075481E1,2.7749992E1,1.5619993E1,1.44116535E1,2.6418327E1,3.991131E1,2.3604147E1,2.0925285E1,4.164281E1,2.021693E1,5.5251987E1,3.7808384E1,4.0636377E0,1.4321084E1,6.754397E0,9.963342E0,5.656652E0,7.9405546E0,6.471099E0,1.2083857E1,1.433447E1,2.937685E1,1.0534456E1,1.2774141E1,1.0830005E1,1.1078211E1,9.8470745E0,1.2064451E1,2.9578358E1,8.4074545E0,1.1809475E1,1.2113068E1,4.313892E1,2.462772E0,1.6008657E0,1.0604657E1,3.7164268E0,2.2597423E0,4.4946547E0,7.0572577E0,2.9060838E0,1.9711076E0,3.6855445E0,5.1106153E0,2.8299394E0,2.7890038E0,3.682095E0,4.1414623E0,7.9423943E0,6.964111E0,3.5703454E0,8.09257E0,4.6815715E0,4.3901544E0,6.4398503E0,6.441032E0,4.6371784E0,3.8320448E0,6.01503E0,3.9842188E0,8.080233E0,4.539258E0,3.8681967E0,4.9208446E0,6.88863E0,3.6662364E0,8.446831E0],"tree_param":{"num_deleted":"0","num_feature":"13","num_nodes":"83","size_leaf_vector":"1"}},{"base_weights":[-1.0771747E-3,-1.0078249E0,8.194121E-1,-1.2567104E0,-1.9709605E-1,-7.525896E-2,1.180857E0,-6.576095E-2,-1.0434324E0,-9.823375E-1,6.352285E-1,-8.2718927E-1,6.8866485E-1,8.2121956E-1,1.2733321E0,-1.2138827E0,-4.84006E-1,-6.308466E-2,-4.4718653E-1,-1.2148752E-1,1.0417905E0,-1.1625886E0,-1.0583439E-1,-1.6675077E-1,1.1193314E0,1.4075784E-1,1.1279415E0,1.1077559E0,6.5521635E-2,-6.52922E-2,-9.1828567E-1,-5.4631203E-2,1.6096626E-1,-9.4731206E-1,4.3573186E-1,-7.439667E-1,6.3652813E-1,6.329413E-1,5.99357E-2,-6.462111E-2,-8.218825E-1,-8.49075E-1,6.281961E-1,-6.580326E-1,7.046306E-1,7.75542E-1,6.3708246E-2,-6.869597E-1,6.9908655E-1,6.424974E-1,6.325572E-2,5.6781685E-1,6.25612E-2,-5.589081E-2,1.075534E-3,-2.0046059E-2,5.3239323E-2,-6.0151607E-2,-2.325958E-2,-1.1720961E-2,4.7465708E-2,-5.3703573E-2,-1.5864827E-3,-1.2567892E-3,5.201611E-2,-1.0648479E-2,4.5385957E-2,-5.421431E-2,4.9271835E-3,-5.8735132E-2,-8.453604E-3,-2.3795923E-3,5.8066983E-2,-5.356544E-2,2.1160708E-3,-1.226457E-2,5.8721807E-2,6.5323375E-3,5.356751E-2,-1.2285238E-2,-6.942112E-2,-6.34102E-3,5.6701373E-2,-6.2935646E-3,5.4156568E-2,-1.7743343E-3,5.554535E-2],"categories":[],"categories_nodes":[],"categories_segments":[],"categories_sizes":[],"default_left":[0,0,0,0,0,0,0,0,0,0,0,0,0,0,0,0,0,0,0,0,0,0,0,0,0,0,0,0,0,0,0,0,0,0,0,0,0,0,0,0,0,0,0,0,0,0,0,0,0,0,0,0,0,0,0,0,0,0,0,0,0,0,0,0,0,0,0,0,0,0,0,0,0,0,0,0,0,0,0,0,0,0,0,0,0,0,0],"id":14,"left_children":[1,3,5,7,9,11,13,-1,15,17,19,21,23,25,27,29,31,-1,33,35,37,39,41,43,45,47,49,51,-1,-1,53,-1,55,57,59,61,63,65,-1,-1,67,69,71,73,75,77,-1,79,81,83,-1,85,-1,-1,-1,-1,-1,-1,-1,-1,-1,-1,-1,-1,-1,-1,-1,-1,-1,-1,-1,-1,-1,-1,-1,-1,-1,-1,-1,-1,-1,-1,-1,-1,-1,-1,-1],"loss_changes":[6.441832E2,7.04115E1,1.390354E2,1.968689E0,5.515689E1,7.212992E1,9.13443E0,0E0,5.369972E0,5.912899E0,1.27747E1,1.5176537E1,2.3153473E1,1.3496426E1,3.2958984E-2,8.456421E-2,6.556122E0,0E0,7.6583853E0,7.6758685E0,9.637928E-1,8.4280777E-1,1.2083229E1,9.773306E0,1.2259712E0,1.0402659E1,2.1807213E0,3.217308E0,0E0,0E0,2.7570915E0,0E0,4.8770175E0,7.706604E-1,2.500495E0,2.0448828E0,2.0090272E0,2.4166453E0,0E0,0E0,3.640253E0,2.2248144E0,4.099923E0,4.220061E0,4.002572E0,2.8114986E0,0E0,2.4919944E0,4.927721E0,4.177602E0,0E0,4.1269283E0,0E0,0E0,0E0,0E0,0E0,0E0,0E0,0E0,0E0,0E0,0E0,0E0,0E0,0E0,0E0,0E0,0E0,0E0,0E0,0E0,0E0,0E0,0E0,0E0,0E0,0E0,0E0,0E0,0E0,0E0,0E0,0E0,0E0,0E0,0E0],"parents":[2147483647,0,0,1,1,2,2,3,3,4,4,5,5,6,6,8,8,9,9,10,10,11,11,12,12,13,13,14,14,15,15,16,16,18,18,19,19,20,20,21,21,22,22,23,23,24,24,25,25,26,26,27,27,30,30,32,32,33,33,34,34,35,35,36,36,37,37,40,40,41,41,42,42,43,43,44,44,45,45,47,47,48,48,49,49,51,51],"right_children":[2,4,6,8,10,12,14,-1,16,18,20,22,24,26,28,30,32,-1,34,36,38,40,42,44,46,48,50,52,-1,-1,54,-1,56,58,60,62,64,66,-1,-1,68,70,72,74,76,78,-1,80,82,84,-1,86,-1,-1,-1,-1,-1,-1,-1,-1,-1,-1,-1,-1,-1,-1,-1,-1,-1,-1,-1,-1,-1,-1,-1,-1,-1,-1,-1,-1,-1,-1,-1,-1,-1,-1,-1],"split_conditions":[1E0,1E0,1E0,1E0,1E0,1E0,1E0,-6.576095E-2,1E0,1E0,1E0,1E0,1E0,1E0,1E0,1E0,1E0,-6.308466E-2,1E0,1E0,1E0,1E0,1E0,1E0,1E0,1E0,1E0,1E0,6.5521635E-2,-6.52922E-2,1E0,-5.4631203E-2,1E0,1E0,1E0,1E0,1E0,1E0,5.99357E-2,-6.462111E-2,1E0,1E0,1E0,1E0,1E0,1E0,6.3708246E-2,4.1E1,1E0,1E0,6.325572E-2,1E0,6.25612E-2,-5.589081E-2,1.075534E-3,-2.0046059E-2,5.3239323E-2,-6.0151607E-2,-2.325958E-2,-1.1720961E-2,4.7465708E-2,-5.3703573E-2,-1.5864827E-3,-1.2567892E-3,5.201611E-2,-1.0648479E-2,4.5385957E-2,-5.421431E-2,4.9271835E-3,-5.8735132E-2,-8.453604E-3,-2.3795923E-3,5.8066983E-2,-5.356544E-2,2.1160708E-3,-1.226457E-2,5.8721807E-2,6.5323375E-3,5.356751E-2,-1.2285238E-2,-6.942112E-2,-6.34102E-3,5.6701373E-2,-6.2935646E-3,5.4156568E-2,-1.7743343E-3,5.554535E-2],"split_indices":[4,2,2,9,9,0,9,0,6,8,6,6,9,0,6,8,3,0,0,3,7,3,8,12,1,1,6,0,0,0,12,0,8,3,12,0,8,3,0,0,1,9,12,8,6,6,0,10,8,7,0,5,0,0,0,0,0,0,0,0,0,0,0,0,0,0,0,0,0,0,0,0,0,0,0,0,0,0,0,0,0,0,0,0,0,0,0],"split_type":[0,0,0,0,0,0,0,0,0,0,0,0,0,0,0,0,0,0,0,0,0,0,0,0,0,0,0,0,0,0,0,0,0,0,0,0,0,0,0,0,0,0,0,0,0,0,0,0,0,0,0,0,0,0,0,0,0,0,0,0,0,0,0,0,0,0,0,0,0,0,0,0,0,0,0,0,0,0,0,0,0,0,0,0,0,0,0],"sum_hessian":[7.778588E2,3.4918158E2,4.2867725E2,2.6674384E2,8.2437744E1,1.2357884E2,3.0509842E2,2.052664E2,6.1477432E1,4.2325905E1,4.0111835E1,6.2236565E1,6.1342278E1,6.4425835E1,2.4067258E2,4.622376E1,1.5253674E1,2.6917156E1,1.5408748E1,1.4264021E1,2.5847816E1,4.2065994E1,2.0170572E1,2.0746717E1,4.0595562E1,2.0470654E1,4.395518E1,4.9704506E1,1.9096806E2,3.2648914E1,1.3574844E1,7.490919E0,7.7627544E0,9.790197E0,5.6185503E0,7.8424053E0,6.4216156E0,8.565272E0,1.7282543E1,2.8436329E1,1.3629666E1,9.944532E0,1.022604E1,1.3423458E1,7.3232594E0,1.4471721E1,2.612384E1,8.153208E0,1.2317447E1,1.0936307E1,3.3018875E1,1.1475289E1,3.8229218E1,1.1041229E1,2.5336149E0,5.129968E0,2.6327865E0,5.4200635E0,4.3701334E0,2.6735334E0,2.9450166E0,5.0116167E0,2.8307889E0,2.7891E0,3.632516E0,2.155242E0,6.4100304E0,1.0467475E1,3.1621916E0,6.232518E0,3.712014E0,4.9113607E0,5.3146787E0,8.108811E0,5.314646E0,2.5814965E0,4.7417626E0,5.0040307E0,9.46769E0,5.8337584E0,2.3194492E0,4.4933915E0,7.824055E0,4.2462025E0,6.690105E0,5.8790627E0,5.5962267E0],"tree_param":{"num_deleted":"0","num_feature":"13","num_nodes":"87","size_leaf_vector":"1"}},{"base_weights":[-1.0174059E-3,-9.872669E-1,8.013315E-1,-1.2339652E0,-1.9168796E-1,-7.311389E-2,1.157737E0,-6.4684086E-2,-1.0184629E0,-9.5945644E-1,6.1671203E-1,-8.0597067E-1,6.695312E-1,8.1432116E-1,6.27728E-2,-1.1905838E0,-4.639071E-1,-6.193774E-2,-4.3337858E-1,-1.1695664E-1,1.015057E0,-1.1794707E0,-1.6757116E-1,-1.5996537E-1,1.0940582E0,8.8180065E-2,1.1077257E0,-6.487925E-2,-8.879765E-1,-5.334525E-2,1.5667395E-1,-9.2261946E-1,4.217531E-1,-7.2144127E-1,6.1601377E-1,6.833999E-1,6.1782062E-2,-6.43743E-2,-7.974697E-1,-8.143385E-1,5.8773625E-1,-7.46832E-1,5.409289E-1,7.025039E-1,6.151093E-2,-6.366632E-1,6.164272E-1,6.2303805E-1,6.1434567E-2,-5.5180043E-2,-8.476609E-3,-1.7437145E-2,4.466224E-2,-5.501465E-2,-1.6139898E-2,-7.915408E-3,5.1277805E-2,-5.236099E-2,-1.5275325E-3,-1.2105041E-3,5.0556567E-2,4.2032097E-3,4.770733E-2,-5.5084407E-2,-5.3235567E-3,-5.915269E-2,-4.4156443E-3,-1.1606281E-2,5.5110555E-2,-5.7965435E-2,-3.0345258E-3,-1.4436933E-2,5.6626063E-2,-7.8060636E-3,4.7515698E-2,-5.4192286E-2,-1.4152068E-4,1.1271543E-3,4.959367E-2,-6.0383207E-3,5.2925754E-2],"categories":[],"categories_nodes":[],"categories_segments":[],"categories_sizes":[],"default_left":[0,0,0,0,0,0,0,0,0,0,0,0,0,0,0,0,0,0,0,0,0,0,0,0,0,0,0,0,0,0,0,0,0,0,0,0,0,0,0,0,0,0,0,0,0,0,0,0,0,0,0,0,0,0,0,0,0,0,0,0,0,0,0,0,0,0,0,0,0,0,0,0,0,0,0,0,0,0,0,0,0],"id":15,"left_children":[1,3,5,7,9,11,13,-1,15,17,19,21,23,25,-1,27,29,-1,31,33,35,37,39,41,43,45,47,-1,49,-1,51,53,55,57,59,61,-1,-1,63,65,67,69,71,73,-1,75,77,79,-1,-1,-1,-1,-1,-1,-1,-1,-1,-1,-1,-1,-1,-1,-1,-1,-1,-1,-1,-1,-1,-1,-1,-1,-1,-1,-1,-1,-1,-1,-1,-1,-1],"loss_changes":[5.999696E2,6.651767E1,1.3038058E2,2.0210266E0,5.1291813E1,6.693756E1,8.9470215E0,0E0,5.2693443E0,5.6765785E0,1.1925533E1,1.4551823E1,2.1705343E1,1.452916E1,0E0,3.3420563E-1,6.1862497E0,0E0,7.167944E0,7.1404395E0,1.0786381E0,5.7670593E-1,1.2201706E1,9.276624E0,1.2987442E0,8.373382E0,2.096222E0,0E0,2.1613913E0,0E0,3.5870898E0,7.766533E-1,2.4679618E0,1.9358382E0,1.8887959E0,1.9866371E0,0E0,0E0,2.2357173E0,3.4684525E0,5.170139E0,3.3712258E0,5.436594E0,2.871708E0,0E0,2.6268613E0,2.7792587E0,3.9426413E0,0E0,0E0,0E0,0E0,0E0,0E0,0E0,0E0,0E0,0E0,0E0,0E0,0E0,0E0,0E0,0E0,0E0,0E0,0E0,0E0,0E0,0E0,0E0,0E0,0E0,0E0,0E0,0E0,0E0,0E0,0E0,0E0,0E0],"parents":[2147483647,0,0,1,1,2,2,3,3,4,4,5,5,6,6,8,8,9,9,10,10,11,11,12,12,13,13,15,15,16,16,18,18,19,19,20,20,21,21,22,22,23,23,24,24,25,25,26,26,28,28,30,30,31,31,32,32,33,33,34,34,35,35,38,38,39,39,40,40,41,41,42,42,43,43,45,45,46,46,47,47],"right_children":[2,4,6,8,10,12,14,-1,16,18,20,22,24,26,-1,28,30,-1,32,34,36,38,40,42,44,46,48,-1,50,-1,52,54,56,58,60,62,-1,-1,64,66,68,70,72,74,-1,76,78,80,-1,-1,-1,-1,-1,-1,-1,-1,-1,-1,-1,-1,-1,-1,-1,-1,-1,-1,-1,-1,-1,-1,-1,-1,-1,-1,-1,-1,-1,-1,-1,-1,-1],"split_conditions":[1E0,1E0,1E0,1E0,1E0,1E0,1E0,-6.4684086E-2,1E0,1E0,1E0,1E0,1E0,1E0,6.27728E-2,1E0,1E0,-6.193774E-2,1E0,1E0,1E0,1E0,1E0,1E0,1E0,1E0,1E0,-6.487925E-2,1E0,-5.334525E-2,1E0,1E0,1E0,1E0,1E0,1E0,6.1782062E-2,-6.43743E-2,1E0,1E0,1E0,1E0,1E0,1E0,6.151093E-2,1E0,1E0,1E0,6.1434567E-2,-5.5180043E-2,-8.476609E-3,-1.7437145E-2,4.466224E-2,-5.501465E-2,-1.6139898E-2,-7.915408E-3,5.1277805E-2,-5.236099E-2,-1.5275325E-3,-1.2105041E-3,5.0556567E-2,4.2032097E-3,4.770733E-2,-5.5084407E-2,-5.3235567E-3,-5.915269E-2,-4.4156443E-3,-1.1606281E-2,5.5110555E-2,-5.7965435E-2,-3.0345258E-3,-1.4436933E-2,5.6626063E-2,-7.8060636E-3,4.7515698E-2,-5.4192286E-2,-1.4152068E-4,1.1271543E-3,4.959367E-2,-6.0383207E-3,5.2925754E-2],"split_indices":[4,2,2,9,9,0,6,0,0,8,6,9,9,0,0,1,3,0,0,3,12,1,3,6,3,1,9,0,8,0,12,12,1,0,8,8,0,0,12,12,1,11,7,7,0,8,3,7,0,0,0,0,0,0,0,0,0,0,0,0,0,0,0,0,0,0,0,0,0,0,0,0,0,0,0,0,0,0,0,0,0],"split_type":[0,0,0,0,0,0,0,0,0,0,0,0,0,0,0,0,0,0,0,0,0,0,0,0,0,0,0,0,0,0,0,0,0,0,0,0,0,0,0,0,0,0,0,0,0,0,0,0,0,0,0,0,0,0,0,0,0,0,0,0,0,0,0,0,0,0,0,0,0,0,0,0,0,0,0,0,0,0,0,0,0],"sum_hessian":[7.561922E2,3.3911752E2,4.1707465E2,2.5843063E2,8.068688E1,1.20998405E2,2.9607626E2,1.9843927E2,5.999138E1,4.12876E1,3.9399277E1,6.085763E1,6.0140774E1,6.7653465E1,2.2842279E2,4.490654E1,1.508484E1,2.6084478E1,1.5203125E1,1.4112808E1,2.528647E1,3.7859898E1,2.2997734E1,2.057054E1,3.9570236E1,1.9843563E1,4.78099E1,3.0746607E1,1.4159933E1,7.2860365E0,7.798803E0,9.620239E0,5.5828853E0,7.742914E0,6.369894E0,1.17372265E1,1.3549243E1,2.7666496E1,1.01934E1,1.2346937E1,1.0650798E1,1.1160329E1,9.410211E0,1.1799112E1,2.7771122E1,8.278645E0,1.15649185E1,1.0777382E1,3.703252E1,1.0478851E1,3.6810822E0,4.937407E0,2.861396E0,6.7781196E0,2.8421197E0,3.2237291E0,2.3591561E0,4.9113107E0,2.8316035E0,2.7891908E0,3.5807033E0,4.0601053E0,7.6771216E0,6.664813E0,3.5285873E0,7.7709394E0,4.5759974E0,4.318188E0,6.3326097E0,6.539485E0,4.6208434E0,4.1300416E0,5.280169E0,2.725534E0,9.073578E0,4.4377384E0,3.8409061E0,4.889968E0,6.674951E0,4.246664E0,6.530718E0],"tree_param":{"num_deleted":"0","num_feature":"13","num_nodes":"81","size_leaf_vector":"1"}},{"base_weights":[-1.134466E-3,-9.678749E-1,7.838951E-1,-1.2127777E0,-1.8606941E-1,-7.1528554E-2,1.1358588E0,-6.368815E-2,-9.9496824E-1,-9.375335E-1,5.996846E-1,-7.849721E-1,6.514484E-1,7.727003E-1,1.2308209E0,-1.1677037E0,-4.3969786E-1,-6.0864724E-2,-4.1931528E-1,-1.1264103E-1,9.9070567E-1,-1.119229E0,-7.986163E-2,-1.54648E-1,1.069759E0,1.04600154E-1,1.0822501E0,1.0627092E0,6.345E-2,-6.307613E-2,-8.715875E-1,-5.2276213E-2,1.8067935E-1,-8.98373E-1,4.10248E-1,-7.9994553E-1,4.9993324E-1,6.609203E-1,6.0734462E-2,-6.145307E-2,-7.533522E-1,-7.9720855E-1,6.0984737E-1,-7.5385034E-1,5.189038E-1,7.212196E-1,6.154753E-2,-6.78929E-1,6.452866E-1,6.0437727E-1,6.111562E-2,5.404967E-1,6.0378402E-2,-5.356142E-2,1.7809728E-3,-1.7978666E-2,5.168621E-2,-5.8024812E-2,-2.09651E-2,-9.782944E-3,4.8560128E-2,-5.5439223E-2,1.6268708E-3,-1.9165134E-2,3.7089385E-2,5.862368E-3,4.8452575E-2,-5.6006905E-2,-1.030764E-3,-5.7991453E-2,1.983757E-3,-1.7934159E-3,5.61841E-2,-5.0344467E-2,9.957716E-3,-2.9661078E-3,4.2352166E-2,3.3325583E-3,5.071969E-2,-1.2300286E-2,-6.796079E-2,-7.7648237E-3,5.4256137E-2,-5.793539E-3,5.1753122E-2,-1.9823671E-3,5.3661175E-2],"categories":[],"categories_nodes":[],"categories_segments":[],"categories_sizes":[],"default_left":[0,0,0,0,0,0,0,0,0,0,0,0,0,0,0,0,0,0,0,0,0,0,0,0,0,0,0,0,0,0,0,0,0,0,0,0,0,0,0,0,0,0,0,0,0,0,0,0,0,0,0,0,0,0,0,0,0,0,0,0,0,0,0,0,0,0,0,0,0,0,0,0,0,0,0,0,0,0,0,0,0,0,0,0,0,0,0],"id":16,"left_children":[1,3,5,7,9,11,13,-1,15,17,19,21,23,25,27,29,31,-1,33,35,37,39,41,43,45,47,49,51,-1,-1,53,-1,55,57,59,61,63,65,-1,-1,67,69,71,73,75,77,-1,79,81,83,-1,85,-1,-1,-1,-1,-1,-1,-1,-1,-1,-1,-1,-1,-1,-1,-1,-1,-1,-1,-1,-1,-1,-1,-1,-1,-1,-1,-1,-1,-1,-1,-1,-1,-1,-1,-1],"loss_changes":[5.589907E2,6.2973206E1,1.2246437E2,2.0689087E0,4.7749603E1,6.211582E1,8.982666E0,0E0,5.1944427E0,5.4683113E0,1.116281E1,1.4185501E1,2.0352562E1,1.2790783E1,1.06170654E-1,1.4468384E-1,6.0986257E0,0E0,6.7204905E0,6.6980405E0,1.096838E0,7.221527E-1,1.0655944E1,8.998585E0,1.3336449E0,9.276575E0,2.1080322E0,2.9858894E0,0E0,0E0,2.5757217E0,0E0,4.344935E0,8.251276E-1,2.4120893E0,1.9474096E0,2.105373E0,1.9963961E0,0E0,0E0,3.2161183E0,3.2351975E0,3.7052407E0,3.0205212E0,2.0677094E0,2.795319E0,0E0,2.3179407E0,4.6958556E0,3.7239952E0,0E0,3.8301606E0,0E0,0E0,0E0,0E0,0E0,0E0,0E0,0E0,0E0,0E0,0E0,0E0,0E0,0E0,0E0,0E0,0E0,0E0,0E0,0E0,0E0,0E0,0E0,0E0,0E0,0E0,0E0,0E0,0E0,0E0,0E0,0E0,0E0,0E0,0E0],"parents":[2147483647,0,0,1,1,2,2,3,3,4,4,5,5,6,6,8,8,9,9,10,10,11,11,12,12,13,13,14,14,15,15,16,16,18,18,19,19,20,20,21,21,22,22,23,23,24,24,25,25,26,26,27,27,30,30,32,32,33,33,34,34,35,35,36,36,37,37,40,40,41,41,42,42,43,43,44,44,45,45,47,47,48,48,49,49,51,51],"right_children":[2,4,6,8,10,12,14,-1,16,18,20,22,24,26,28,30,32,-1,34,36,38,40,42,44,46,48,50,52,-1,-1,54,-1,56,58,60,62,64,66,-1,-1,68,70,72,74,76,78,-1,80,82,84,-1,86,-1,-1,-1,-1,-1,-1,-1,-1,-1,-1,-1,-1,-1,-1,-1,-1,-1,-1,-1,-1,-1,-1,-1,-1,-1,-1,-1,-1,-1,-1,-1,-1,-1,-1,-1],"split_conditions":[1E0,1E0,1E0,1E0,1E0,1E0,1E0,-6.368815E-2,1E0,1E0,1E0,1E0,1E0,1E0,1E0,1E0,1E0,-6.0864724E-2,1E0,1E0,1E0,1E0,1E0,1E0,1E0,1E0,1E0,1E0,6.345E-2,-6.307613E-2,1E0,-5.2276213E-2,1E0,1E0,1E0,1E0,1.2E1,1E0,6.0734462E-2,-6.145307E-2,1E0,1E0,1E0,4.4E1,1E0,1E0,6.154753E-2,4.1E1,1E0,1E0,6.111562E-2,1E0,6.0378402E-2,-5.356142E-2,1.7809728E-3,-1.7978666E-2,5.168621E-2,-5.8024812E-2,-2.09651E-2,-9.782944E-3,4.8560128E-2,-5.5439223E-2,1.6268708E-3,-1.9165134E-2,3.7089385E-2,5.862368E-3,4.8452575E-2,-5.6006905E-2,-1.030764E-3,-5.7991453E-2,1.983757E-3,-1.7934159E-3,5.61841E-2,-5.0344467E-2,9.957716E-3,-2.9661078E-3,4.2352166E-2,3.3325583E-3,5.071969E-2,-1.2300286E-2,-6.796079E-2,-7.7648237E-3,5.4256137E-2,-5.793539E-3,5.1753122E-2,-1.9823671E-3,5.3661175E-2],"split_indices":[4,2,2,9,9,0,9,0,6,8,6,8,9,0,6,8,3,0,0,0,12,1,6,1,1,1,6,0,0,0,12,0,8,3,6,7,10,7,0,0,3,3,12,10,8,8,0,10,8,7,0,5,0,0,0,0,0,0,0,0,0,0,0,0,0,0,0,0,0,0,0,0,0,0,0,0,0,0,0,0,0,0,0,0,0,0,0],"split_type":[0,0,0,0,0,0,0,0,0,0,0,0,0,0,0,0,0,0,0,0,0,0,0,0,0,0,0,0,0,0,0,0,0,0,0,0,0,0,0,0,0,0,0,0,0,0,0,0,0,0,0,0,0,0,0,0,0,0,0,0,0,0,0,0,0,0,0,0,0,0,0,0,0,0,0,0,0,0,0,0,0,0,0,0,0,0,0],"sum_hessian":[7.3456134E2,3.2907834E2,4.0548303E2,2.5016284E2,7.891549E1,1.1843401E2,2.87049E2,1.9165302E2,5.8509823E1,4.0239174E1,3.867632E1,5.9566868E1,5.8867146E1,6.1395283E1,2.2565373E2,4.3785828E1,1.4723995E1,2.525579E1,1.4983381E1,1.3959017E1,2.4717302E1,4.001194E1,1.9554926E1,2.0326912E1,3.8540234E1,1.9862986E1,4.15323E1,4.70993E1,1.7855443E2,3.0775087E1,1.3010738E1,7.102641E0,7.6213546E0,9.445709E0,5.5376725E0,6.43411E0,7.5249066E0,1.1595406E1,1.3121897E1,2.8959404E1,1.1052538E1,9.50901E0,1.0045916E1,1.0694076E1,9.632835E0,1.3918659E1,2.4621574E1,8.0058E0,1.1857185E1,1.0618501E1,3.0913797E1,1.1255327E1,3.584397E1,1.0515818E1,2.4949203E0,5.020341E0,2.6010137E0,5.185875E0,4.259834E0,2.9752276E0,2.562445E0,4.450967E0,1.9831434E0,1.4918655E0,6.033041E0,4.693901E0,6.9015045E0,7.013226E0,4.0393114E0,6.3651223E0,3.1438882E0,4.8638735E0,5.1820426E0,8.405682E0,2.2883937E0,3.784049E0,5.8487864E0,4.685257E0,9.233402E0,5.7244654E0,2.2813344E0,4.4337893E0,7.423396E0,4.247028E0,6.371473E0,5.8309493E0,5.4243774E0],"tree_param":{"num_deleted":"0","num_feature":"13","num_nodes":"87","size_leaf_vector":"1"}},{"base_weights":[-1.0782711E-3,-9.4965476E-1,7.6754117E-1,-1.1928754E0,-1.8124385E-1,-6.953318E-2,1.1152974E0,-6.276482E-2,-9.7232354E-1,-9.162246E-1,5.833195E-1,-7.6518524E-1,6.3400114E-1,7.5266266E-1,1.2111514E0,-6.0562182E-2,-5.5107915E-1,-5.9857614E-2,-4.0586492E-1,-1.1094645E-1,9.679606E-1,-1.1395472E0,-1.4237686E-1,-1.4831722E-1,1.0470035E0,9.8923616E-2,1.0612077E0,1.0405376E0,6.251198E-2,-1.0004056E0,1.0488779E-1,-8.756506E-1,3.968529E-1,-6.9319E-1,5.881571E-1,6.401944E-1,5.9752136E-2,-6.2444437E-2,-7.63441E-1,-7.667907E-1,5.7297873E-1,-7.155973E-1,5.250189E-1,6.466862E-1,5.9335567E-2,-6.552172E-1,6.259259E-1,5.8645076E-1,6.015156E-2,5.226538E-1,5.9385028E-2,-5.786046E-2,7.3514925E-3,-3.445679E-2,3.5948478E-2,-5.307282E-2,-1.3493656E-2,-8.270501E-3,4.9796354E-2,-5.0190907E-2,-2.3015297E-3,-1.3554866E-3,4.8629418E-2,2.9367357E-3,4.549933E-2,-5.3081673E-2,-5.1231585E-3,-5.6434877E-2,-3.4088213E-3,-1.0691024E-2,5.32806E-2,-5.5949446E-2,-3.0598582E-3,-1.3533293E-2,5.50101E-2,-7.965829E-3,5.2037816E-2,-5.2334644E-2,-2.8122735E-4,-7.4351965E-3,5.3103905E-2,-5.5587664E-3,5.0632685E-2,-1.8969743E-3,5.234307E-2],"categories":[],"categories_nodes":[],"categories_segments":[],"categories_sizes":[],"default_left":[0,0,0,0,0,0,0,0,0,0,0,0,0,0,0,0,0,0,0,0,0,0,0,0,0,0,0,0,0,0,0,0,0,0,0,0,0,0,0,0,0,0,0,0,0,0,0,0,0,0,0,0,0,0,0,0,0,0,0,0,0,0,0,0,0,0,0,0,0,0,0,0,0,0,0,0,0,0,0,0,0,0,0,0,0],"id":17,"left_children":[1,3,5,7,9,11,13,-1,15,17,19,21,23,25,27,-1,29,-1,31,33,35,37,39,41,43,45,47,49,-1,51,53,55,57,59,61,63,-1,-1,65,67,69,71,73,75,-1,77,79,81,-1,83,-1,-1,-1,-1,-1,-1,-1,-1,-1,-1,-1,-1,-1,-1,-1,-1,-1,-1,-1,-1,-1,-1,-1,-1,-1,-1,-1,-1,-1,-1,-1,-1,-1,-1,-1],"loss_changes":[5.214193E2,5.960956E1,1.1507701E2,2.1243896E0,4.4444637E1,5.769413E1,8.792053E0,0E0,5.173065E0,5.2820587E0,1.0498164E1,1.3647259E1,1.9109562E1,1.2200119E1,1.6064453E-1,0E0,6.836018E0,0E0,6.304114E0,6.419457E0,1.1062069E0,5.6196976E-1,1.0882086E1,8.452551E0,1.3868217E0,8.622368E0,2.078064E0,2.9469872E0,0E0,2.6257591E0,5.46353E0,8.701806E-1,2.3607771E0,1.6659441E0,1.741683E0,1.8985858E0,0E0,0E0,2.0342145E0,3.1872435E0,4.6729655E0,3.0727787E0,4.986837E0,4.028893E0,0E0,2.2798693E0,4.4401817E0,3.520081E0,0E0,3.6086469E0,0E0,0E0,0E0,0E0,0E0,0E0,0E0,0E0,0E0,0E0,0E0,0E0,0E0,0E0,0E0,0E0,0E0,0E0,0E0,0E0,0E0,0E0,0E0,0E0,0E0,0E0,0E0,0E0,0E0,0E0,0E0,0E0,0E0,0E0,0E0],"parents":[2147483647,0,0,1,1,2,2,3,3,4,4,5,5,6,6,8,8,9,9,10,10,11,11,12,12,13,13,14,14,16,16,18,18,19,19,20,20,21,21,22,22,23,23,24,24,25,25,26,26,27,27,29,29,30,30,31,31,32,32,33,33,34,34,35,35,38,38,39,39,40,40,41,41,42,42,43,43,45,45,46,46,47,47,49,49],"right_children":[2,4,6,8,10,12,14,-1,16,18,20,22,24,26,28,-1,30,-1,32,34,36,38,40,42,44,46,48,50,-1,52,54,56,58,60,62,64,-1,-1,66,68,70,72,74,76,-1,78,80,82,-1,84,-1,-1,-1,-1,-1,-1,-1,-1,-1,-1,-1,-1,-1,-1,-1,-1,-1,-1,-1,-1,-1,-1,-1,-1,-1,-1,-1,-1,-1,-1,-1,-1,-1,-1,-1],"split_conditions":[1E0,1E0,1E0,1E0,1E0,1E0,1E0,-6.276482E-2,1E0,1E0,1E0,1E0,1E0,1E0,1E0,-6.0562182E-2,1E0,-5.9857614E-2,1E0,1E0,1E0,1E0,1E0,1E0,1E0,1E0,1E0,1E0,6.251198E-2,5.5E1,1E0,1E0,1E0,1E0,1E0,1E0,5.9752136E-2,-6.2444437E-2,1E0,1E0,1E0,1E0,1E0,1E0,5.9335567E-2,1E0,1E0,1E0,6.015156E-2,1E0,5.9385028E-2,-5.786046E-2,7.3514925E-3,-3.445679E-2,3.5948478E-2,-5.307282E-2,-1.3493656E-2,-8.270501E-3,4.9796354E-2,-5.0190907E-2,-2.3015297E-3,-1.3554866E-3,4.8629418E-2,2.9367357E-3,4.549933E-2,-5.3081673E-2,-5.1231585E-3,-5.6434877E-2,-3.4088213E-3,-1.0691024E-2,5.32806E-2,-5.5949446E-2,-3.0598582E-3,-1.3533293E-2,5.50101E-2,-7.965829E-3,5.2037816E-2,-5.2334644E-2,-2.8122735E-4,-7.4351965E-3,5.3103905E-2,-5.5587664E-3,5.0632685E-2,-1.8969743E-3,5.234307E-2],"split_indices":[4,2,2,9,9,0,9,0,3,8,6,9,9,0,6,0,1,0,0,3,12,1,3,6,6,1,6,0,0,10,7,6,1,0,8,1,0,0,12,12,8,11,7,8,0,7,8,7,0,5,0,0,0,0,0,0,0,0,0,0,0,0,0,0,0,0,0,0,0,0,0,0,0,0,0,0,0,0,0,0,0,0,0,0,0],"split_type":[0,0,0,0,0,0,0,0,0,0,0,0,0,0,0,0,0,0,0,0,0,0,0,0,0,0,0,0,0,0,0,0,0,0,0,0,0,0,0,0,0,0,0,0,0,0,0,0,0,0,0,0,0,0,0,0,0,0,0,0,0,0,0,0,0,0,0,0,0,0,0,0,0,0,0,0,0,0,0,0,0,0,0,0,0],"sum_hessian":[7.131606E2,3.191063E2,3.9405426E2,2.4196585E2,7.7140434E1,1.15892586E2,2.7816168E2,1.8493385E2,5.7032005E1,3.9229984E1,3.7910454E1,5.822867E1,5.7663918E1,6.000453E1,2.1815717E2,3.519489E1,2.1837118E1,2.443437E1,1.4795614E1,1.376913E1,2.4141323E1,3.5850006E1,2.237866E1,2.0145235E1,3.751868E1,1.9663183E1,4.034135E1,4.581267E1,1.7234448E2,1.2648214E1,9.188903E0,9.276023E0,5.519592E0,7.517059E0,6.2520714E0,1.1443379E1,1.2697943E1,2.5977312E1,9.872694E0,1.1910456E1,1.04682045E1,1.0899627E1,9.245608E0,1.1162534E1,2.6356148E1,7.9884353E0,1.1674748E1,1.0460316E1,2.9881033E1,1.1144697E1,3.4667976E1,1.1120075E1,1.5281392E0,3.9540248E0,5.234878E0,6.523036E0,2.7529864E0,3.220692E0,2.2989E0,4.70676E0,2.810299E0,2.7616467E0,3.4904246E0,4.01275E0,7.4306297E0,6.385703E0,3.486991E0,7.4404283E0,4.470028E0,4.248601E0,6.2196035E0,6.3038197E0,4.5958076E0,4.101369E0,5.14424E0,3.8610778E0,7.3014565E0,4.603087E0,3.385348E0,4.4429264E0,7.2318225E0,4.247305E0,6.2130103E0,5.8337007E0,5.310997E0],"tree_param":{"num_deleted":"0","num_feature":"13","num_nodes":"85","size_leaf_vector":"1"}},{"base_weights":[-9.675849E-4,-9.321864E-1,7.519979E-1,-1.1741848E0,-1.7604558E-1,-6.8039514E-2,1.0959762E0,-6.1906815E-2,-9.5064765E-1,-8.9614505E-1,5.675897E-1,-7.4613047E-1,6.1762345E-1,7.340238E-1,1.1926951E0,-1.1278971E0,-3.9804205E-1,-5.8909368E-2,-3.9278772E-1,-1.069525E-1,9.4553256E-1,-1.0782036E0,-6.281881E-2,-1.4346881E-1,1.025337E0,9.483613E-2,1.0411326E0,1.0193363E0,6.163885E-2,-6.205309E-2,-8.1913495E-1,-4.9915638E-2,1.8534662E-1,-8.530932E-1,3.8627365E-1,-6.728495E-1,5.6978536E-1,6.193183E-1,5.88283E-2,-6.060036E-2,-7.402487E-1,-7.9778606E-1,5.47388E-1,-7.191312E-1,4.974522E-1,6.240768E-1,5.85197E-2,-6.308701E-1,6.0732365E-1,5.6920207E-1,5.9245046E-2,5.055604E-1,5.84477E-2,-5.1921725E-2,-6.2579587E-3,-1.783525E-2,3.8920756E-2,-5.611567E-2,-1.8823106E-2,-1.26492595E-2,4.4645924E-2,-6.0102016E-2,-1.1773653E-2,-1.3056862E-3,4.7336854E-2,4.67953E-3,4.6362303E-2,-5.0068863E-2,4.995999E-3,-5.720513E-2,1.9770052E-2,-5.794286E-3,4.3577943E-2,-5.9041124E-2,-6.577269E-3,-2.737851E-3,4.0665917E-2,-1.0043573E-2,4.3896582E-2,-2.773242E-3,-5.3626012E-2,-7.120119E-3,5.200241E-2,-5.3335894E-3,4.955916E-2,-1.1664564E-2,4.367928E-2],"categories":[],"categories_nodes":[],"categories_segments":[],"categories_sizes":[],"default_left":[0,0,0,0,0,0,0,0,0,0,0,0,0,0,0,0,0,0,0,0,0,0,0,0,0,0,0,0,0,0,0,0,0,0,0,0,0,0,0,0,0,0,0,0,0,0,0,0,0,0,0,0,0,0,0,0,0,0,0,0,0,0,0,0,0,0,0,0,0,0,0,0,0,0,0,0,0,0,0,0,0,0,0,0,0,0,0],"id":18,"left_children":[1,3,5,7,9,11,13,-1,15,17,19,21,23,25,27,29,31,-1,33,35,37,39,41,43,45,47,49,51,-1,-1,53,-1,55,57,59,61,63,65,-1,-1,67,69,71,73,75,77,-1,79,81,83,-1,85,-1,-1,-1,-1,-1,-1,-1,-1,-1,-1,-1,-1,-1,-1,-1,-1,-1,-1,-1,-1,-1,-1,-1,-1,-1,-1,-1,-1,-1,-1,-1,-1,-1,-1,-1],"loss_changes":[4.8657962E2,5.656436E1,1.0830635E2,2.180359E0,4.1418236E1,5.361684E1,8.589569E0,0E0,5.0900383E0,5.102396E0,9.838811E0,1.3078136E1,1.7956858E1,1.1603226E1,2.1478271E-1,4.6038818E-1,5.5355263E0,0E0,5.915591E0,5.980197E0,1.1239662E0,8.630104E-1,9.410303E0,8.068101E0,1.4520607E0,7.987604E0,2.0507545E0,2.9097862E0,0E0,0E0,2.043108E0,0E0,3.0396893E0,8.739481E-1,2.3225925E0,1.6652439E0,1.641331E0,1.9048891E0,0E0,0E0,3.0858712E0,4.3711433E0,2.5791166E0,2.9422722E0,1.8724256E0,2.7099185E0,0E0,2.2158186E0,4.2012644E0,3.329524E0,0E0,3.4758244E0,0E0,0E0,0E0,0E0,0E0,0E0,0E0,0E0,0E0,0E0,0E0,0E0,0E0,0E0,0E0,0E0,0E0,0E0,0E0,0E0,0E0,0E0,0E0,0E0,0E0,0E0,0E0,0E0,0E0,0E0,0E0,0E0,0E0,0E0,0E0],"parents":[2147483647,0,0,1,1,2,2,3,3,4,4,5,5,6,6,8,8,9,9,10,10,11,11,12,12,13,13,14,14,15,15,16,16,18,18,19,19,20,20,21,21,22,22,23,23,24,24,25,25,26,26,27,27,30,30,32,32,33,33,34,34,35,35,36,36,37,37,40,40,41,41,42,42,43,43,44,44,45,45,47,47,48,48,49,49,51,51],"right_children":[2,4,6,8,10,12,14,-1,16,18,20,22,24,26,28,30,32,-1,34,36,38,40,42,44,46,48,50,52,-1,-1,54,-1,56,58,60,62,64,66,-1,-1,68,70,72,74,76,78,-1,80,82,84,-1,86,-1,-1,-1,-1,-1,-1,-1,-1,-1,-1,-1,-1,-1,-1,-1,-1,-1,-1,-1,-1,-1,-1,-1,-1,-1,-1,-1,-1,-1,-1,-1,-1,-1,-1,-1],"split_conditions":[1E0,1E0,1E0,1E0,1E0,1E0,1E0,-6.1906815E-2,1E0,1E0,1E0,1E0,1E0,1E0,1E0,1E0,1E0,-5.8909368E-2,1E0,1E0,1E0,1E0,1E0,1E0,1E0,1E0,1E0,1E0,6.163885E-2,-6.205309E-2,1E0,-4.9915638E-2,1E0,1E0,1E0,2.1E1,1E0,1E0,5.88283E-2,-6.060036E-2,1E0,1E0,1E0,1E0,1E0,1E0,5.85197E-2,2.8E1,1E0,1E0,5.9245046E-2,1E0,5.84477E-2,-5.1921725E-2,-6.2579587E-3,-1.783525E-2,3.8920756E-2,-5.611567E-2,-1.8823106E-2,-1.26492595E-2,4.4645924E-2,-6.0102016E-2,-1.1773653E-2,-1.3056862E-3,4.7336854E-2,4.67953E-3,4.6362303E-2,-5.0068863E-2,4.995999E-3,-5.720513E-2,1.9770052E-2,-5.794286E-3,4.3577943E-2,-5.9041124E-2,-6.577269E-3,-2.737851E-3,4.0665917E-2,-1.0043573E-2,4.3896582E-2,-2.773242E-3,-5.3626012E-2,-7.120119E-3,5.200241E-2,-5.3335894E-3,4.955916E-2,-1.1664564E-2,4.367928E-2],"split_indices":[4,2,2,9,9,0,9,0,0,8,6,6,9,0,6,1,3,0,0,3,12,3,9,1,3,1,6,0,0,0,8,0,8,3,12,10,8,7,0,0,1,12,8,3,8,7,0,10,8,7,0,1,0,0,0,0,0,0,0,0,0,0,0,0,0,0,0,0,0,0,0,0,0,0,0,0,0,0,0,0,0,0,0,0,0,0,0],"split_type":[0,0,0,0,0,0,0,0,0,0,0,0,0,0,0,0,0,0,0,0,0,0,0,0,0,0,0,0,0,0,0,0,0,0,0,0,0,0,0,0,0,0,0,0,0,0,0,0,0,0,0,0,0,0,0,0,0,0,0,0,0,0,0,0,0,0,0,0,0,0,0,0,0,0,0,0,0,0,0,0,0,0,0,0,0,0,0],"sum_hessian":[6.9194855E2,3.092501E2,3.8269846E2,2.3385373E2,7.539636E1,1.133283E2,2.6937015E2,1.7830406E2,5.554966E1,3.820015E1,3.7196213E1,5.693443E1,5.6393867E1,5.8612617E1,2.1075754E2,4.1270878E1,1.427878E1,2.3622997E1,1.457715E1,1.3614478E1,2.3581736E1,3.792559E1,1.9008839E1,1.9897905E1,3.6495964E1,1.9446754E1,3.9165867E1,4.454145E1,1.6621608E2,2.7992027E1,1.32788515E1,6.687021E0,7.5917587E0,9.103409E0,5.473742E0,7.4175625E0,6.1969156E0,1.130291E1,1.2278826E1,2.5316105E1,1.2609485E1,8.483471E0,1.0525369E1,1.0418337E1,9.479568E0,1.1098186E1,2.539778E1,7.9533887E0,1.1493365E1,1.0303383E1,2.8862482E1,1.1033217E1,3.3508232E1,9.713109E0,3.5657425E0,4.1747093E0,3.4170496E0,4.951772E0,4.1516366E0,2.6414983E0,2.8322437E0,2.5653698E0,4.8521924E0,2.7617552E0,3.4351602E0,4.656597E0,6.6463127E0,9.4732685E0,3.136216E0,6.6069684E0,1.8765022E0,3.6663353E0,6.8590336E0,5.268799E0,5.149538E0,3.750116E0,5.7294517E0,2.6606443E0,8.437541E0,3.9424896E0,4.010899E0,4.4515886E0,7.041777E0,4.2475033E0,6.0558796E0,3.790156E0,7.243062E0],"tree_param":{"num_deleted":"0","num_feature":"13","num_nodes":"87","size_leaf_vector":"1"}},{"base_weights":[-9.905262E-4,-9.155313E-1,7.371893E-1,-1.1565665E0,-1.713728E-1,-6.658722E-2,1.0775177E0,-6.1107725E-2,-9.2998886E-1,-8.770633E-1,5.5146927E-1,-7.556686E-1,5.7991654E-1,7.3070806E-1,1.18059E0,-1.1084155E0,-3.7375975E-1,-5.5105347E-2,-2.6881087E-1,-1.041241E-1,9.245076E-1,-1.100442E0,-1.3909356E-1,-1.2704326E-1,1.0039109E0,5.774332E-2,1.0243044E0,1.0197358E0,6.110972E-2,-6.033205E-2,-8.0702716E-1,-8.807582E-1,3.2220882E-1,-7.461081E-1,6.0986185E-1,-7.53164E-1,4.6405265E-1,6.0005724E-1,5.795697E-2,-6.0714375E-2,-7.220726E-1,-5.8591264E-1,6.5115905E-1,-7.298295E-1,5.5337703E-1,6.4296037E-1,5.8861535E-2,-5.950895E-1,5.4228836E-1,5.525818E-1,5.756047E-2,5.370504E-1,5.765828E-2,-5.059929E-2,3.822808E-3,-5.542147E-2,-3.0803145E-3,-1.3460948E-2,5.1594097E-2,-5.8590423E-2,1.256447E-3,-2.2902885E-2,5.3867366E-2,-5.3212315E-2,2.2383963E-3,-1.2461274E-2,3.7818234E-2,1.2135286E-3,4.368464E-2,-5.098321E-2,-4.3124077E-3,-4.8877776E-2,2.980844E-3,-1.0688326E-2,5.4383356E-2,-5.447166E-2,-2.5935182E-3,-1.036854E-2,5.1542338E-2,5.0615924E-3,5.18003E-2,-5.1265758E-2,9.066384E-5,-1.455961E-3,4.61154E-2,-5.1176036E-3,4.8527934E-2,-1.1935535E-2,4.5447804E-2],"categories":[],"categories_nodes":[],"categories_segments":[],"categories_sizes":[],"default_left":[0,0,0,0,0,0,0,0,0,0,0,0,0,0,0,0,0,0,0,0,0,0,0,0,0,0,0,0,0,0,0,0,0,0,0,0,0,0,0,0,0,0,0,0,0,0,0,0,0,0,0,0,0,0,0,0,0,0,0,0,0,0,0,0,0,0,0,0,0,0,0,0,0,0,0,0,0,0,0,0,0,0,0,0,0,0,0,0,0],"id":19,"left_children":[1,3,5,7,9,11,13,-1,15,17,19,21,23,25,27,29,31,-1,33,35,37,39,41,43,45,47,49,51,-1,-1,53,55,57,59,61,63,65,67,-1,-1,69,71,73,75,77,79,-1,81,83,85,-1,87,-1,-1,-1,-1,-1,-1,-1,-1,-1,-1,-1,-1,-1,-1,-1,-1,-1,-1,-1,-1,-1,-1,-1,-1,-1,-1,-1,-1,-1,-1,-1,-1,-1,-1,-1,-1,-1],"loss_changes":[4.543927E2,5.3724823E1,1.0195534E2,2.235321E0,3.860095E1,5.021432E1,8.492859E0,0E0,5.056175E0,4.93227E0,9.2740965E0,1.1436611E1,1.7576706E1,1.2306744E1,9.3048096E-2,2.4661255E-1,5.5398607E0,0E0,5.3359585E0,5.6997557E0,1.1329536E0,6.231842E-1,7.6897326E0,9.719028E0,1.5266037E0,6.6716075E0,1.9689026E0,2.4182205E0,0E0,0E0,2.458993E0,1.5888801E0,3.2200868E0,2.6531405E0,2.8133712E0,1.823308E0,1.9304932E0,1.8936572E0,0E0,0E0,1.9028125E0,3.5340037E0,3.2337406E0,2.9846392E0,4.295636E0,2.8855634E0,0E0,2.3200932E0,2.6420333E0,3.1511228E0,0E0,3.7038069E0,0E0,0E0,0E0,0E0,0E0,0E0,0E0,0E0,0E0,0E0,0E0,0E0,0E0,0E0,0E0,0E0,0E0,0E0,0E0,0E0,0E0,0E0,0E0,0E0,0E0,0E0,0E0,0E0,0E0,0E0,0E0,0E0,0E0,0E0,0E0,0E0,0E0],"parents":[2147483647,0,0,1,1,2,2,3,3,4,4,5,5,6,6,8,8,9,9,10,10,11,11,12,12,13,13,14,14,15,15,16,16,18,18,19,19,20,20,21,21,22,22,23,23,24,24,25,25,26,26,27,27,30,30,31,31,32,32,33,33,34,34,35,35,36,36,37,37,40,40,41,41,42,42,43,43,44,44,45,45,47,47,48,48,49,49,51,51],"right_children":[2,4,6,8,10,12,14,-1,16,18,20,22,24,26,28,30,32,-1,34,36,38,40,42,44,46,48,50,52,-1,-1,54,56,58,60,62,64,66,68,-1,-1,70,72,74,76,78,80,-1,82,84,86,-1,88,-1,-1,-1,-1,-1,-1,-1,-1,-1,-1,-1,-1,-1,-1,-1,-1,-1,-1,-1,-1,-1,-1,-1,-1,-1,-1,-1,-1,-1,-1,-1,-1,-1,-1,-1,-1,-1],"split_conditions":[1E0,1E0,1E0,1E0,1E0,1E0,1E0,-6.1107725E-2,1E0,1E0,1E0,1E0,1E0,1E0,1E0,1E0,1E0,-5.5105347E-2,1E0,1E0,1E0,1E0,1E0,1E0,1E0,1E0,1E0,1E0,6.110972E-2,-6.033205E-2,1E0,4.4E1,1E0,1E0,1E0,1E0,2E1,1E0,5.795697E-2,-6.0714375E-2,1E0,1E0,1E0,1E0,1E0,1E0,5.8861535E-2,1E0,1E0,1E0,5.756047E-2,1E0,5.765828E-2,-5.059929E-2,3.822808E-3,-5.542147E-2,-3.0803145E-3,-1.3460948E-2,5.1594097E-2,-5.8590423E-2,1.256447E-3,-2.2902885E-2,5.3867366E-2,-5.3212315E-2,2.2383963E-3,-1.2461274E-2,3.7818234E-2,1.2135286E-3,4.368464E-2,-5.098321E-2,-4.3124077E-3,-4.8877776E-2,2.980844E-3,-1.0688326E-2,5.4383356E-2,-5.447166E-2,-2.5935182E-3,-1.036854E-2,5.1542338E-2,5.0615924E-3,5.18003E-2,-5.1265758E-2,9.066384E-5,-1.455961E-3,4.61154E-2,-5.1176036E-3,4.8527934E-2,-1.1935535E-2,4.5447804E-2],"split_indices":[4,2,2,9,9,9,6,0,6,0,6,0,0,0,0,8,1,0,6,0,12,1,12,3,1,1,9,9,0,0,12,10,12,12,7,7,10,8,0,0,12,8,6,12,1,5,0,8,3,7,0,1,0,0,0,0,0,0,0,0,0,0,0,0,0,0,0,0,0,0,0,0,0,0,0,0,0,0,0,0,0,0,0,0,0,0,0,0,0],"split_type":[0,0,0,0,0,0,0,0,0,0,0,0,0,0,0,0,0,0,0,0,0,0,0,0,0,0,0,0,0,0,0,0,0,0,0,0,0,0,0,0,0,0,0,0,0,0,0,0,0,0,0,0,0,0,0,0,0,0,0,0,0,0,0,0,0,0,0,0,0,0,0,0,0,0,0,0,0,0,0,0,0,0,0,0,0,0,0,0,0],"sum_hessian":[6.710794E2,2.9962714E2,3.714523E2,2.2590244E2,7.372469E1,1.10732445E2,2.6071985E2,1.717823E2,5.412014E1,3.719697E1,3.6527718E1,5.3519447E1,5.7212994E1,6.1586742E1,1.9913312E2,4.0224297E1,1.3895843E1,2.655874E1,1.0638232E1,1.3508385E1,2.3019331E1,3.3822163E1,1.9697283E1,2.1711699E1,3.5501297E1,1.9070686E1,4.2516056E1,4.6163292E1,1.5296982E2,2.8071808E1,1.215249E1,7.8857355E0,6.010107E0,6.991371E0,3.646861E0,6.153517E0,7.354868E0,1.115356E1,1.1865772E1,2.4301085E1,9.521079E0,1.2747983E1,6.9493E0,1.1474125E1,1.0237574E1,1.3044633E1,2.2456663E1,8.027289E0,1.1043396E1,1.0148183E1,3.2367874E1,1.1085647E1,3.5077644E1,9.746059E0,2.4064307E0,5.894346E0,1.9913895E0,3.61668E0,2.3934271E0,4.1701703E0,2.8212008E0,1.1165016E0,2.5303595E0,4.187298E0,1.966219E0,2.1808116E0,5.1740565E0,3.9437587E0,7.209801E0,6.0743494E0,3.4467294E0,7.614138E0,5.1338453E0,2.5019846E0,4.447315E0,7.100787E0,4.3733377E0,4.165851E0,6.0717225E0,6.013659E0,7.030974E0,4.2478614E0,3.7794282E0,4.779775E0,6.2636213E0,4.2476325E0,5.9005504E0,3.7084017E0,7.3772454E0],"tree_param":{"num_deleted":"0","num_feature":"13","num_nodes":"89","size_leaf_vector":"1"}},{"base_weights":[-9.214677E-4,-8.995054E-1,7.2284E-1,-1.1397747E0,-1.6671777E-1,-6.486617E-2,1.0601532E0,-6.0361903E-2,-9.096129E-1,-8.5682625E-1,5.367056E-1,-6.8332875E-1,6.1919516E-1,6.960742E-1,1.1595865E0,-5.79399E-2,-4.8811132E-1,-5.72942E-2,-3.573163E-1,-1.02103785E-1,9.036008E-1,-1.0336303E0,-2.392872E-2,-1.02075264E-1,9.696651E-1,9.907902E-2,1.0199903E0,9.8192436E-1,6.006798E-2,-7.9303575E-1,4.071918E-1,-8.156893E-1,3.9308956E-1,-6.458583E-1,5.456595E-1,5.8053195E-1,5.7132866E-2,-6.0745295E-2,-5.165311E-1,-6.9861096E-1,6.06708E-1,-7.3266995E-1,9.4202733E-1,5.231312E-1,5.664236E-2,-5.308749E-1,6.1609256E-1,4.8900235E-1,1.1952124E0,4.8194686E-1,5.671803E-2,-5.2688856E-2,-4.670286E-3,-2.1559356E-2,4.8018664E-2,-5.2316774E-2,3.575137E-3,-2.829518E-2,5.1928747E-2,-5.8182295E-2,-1.0944507E-2,-1.3498627E-3,4.5631476E-2,3.5350234E-3,4.445679E-2,-4.5283534E-2,1.4755271E-2,-5.1223036E-2,2.4387297E-4,-2.4598604E-3,5.373128E-2,-5.5257704E-2,-6.2111053E-3,9.794546E-3,5.6568444E-2,-5.622826E-3,4.2001784E-2,-4.046538E-2,-6.090377E-4,-1.7590441E-3,4.4728264E-2,-1.3588235E-2,3.9337713E-2,6.101036E-2,1.8109767E-2,-3.0287215E-3,5.0198168E-2],"categories":[],"categories_nodes":[],"categories_segments":[],"categories_sizes":[],"default_left":[0,0,0,0,0,0,0,0,0,0,0,0,0,0,0,0,0,0,0,0,0,0,0,0,0,0,0,0,0,0,0,0,0,0,0,0,0,0,0,0,0,0,0,0,0,0,0,0,0,0,0,0,0,0,0,0,0,0,0,0,0,0,0,0,0,0,0,0,0,0,0,0,0,0,0,0,0,0,0,0,0,0,0,0,0,0,0],"id":20,"left_children":[1,3,5,7,9,11,13,-1,15,17,19,21,23,25,27,-1,29,-1,31,33,35,37,39,41,43,45,47,49,-1,51,53,55,57,59,61,63,-1,-1,65,67,69,71,73,75,-1,77,79,81,83,85,-1,-1,-1,-1,-1,-1,-1,-1,-1,-1,-1,-1,-1,-1,-1,-1,-1,-1,-1,-1,-1,-1,-1,-1,-1,-1,-1,-1,-1,-1,-1,-1,-1,-1,-1,-1,-1],